-0.018326407 0.07187212 0.086107 0.059926037 0.047788832 0.012631212 -0.0633873 0.0013671425 -0.04959366 0.0040078578 -0.082059786 0.008670026 0.010241448 -0.08057526 -0.0046210582 -0.04178607 -0.02264842 -0.0352007 -0.023164013 0.009373778 -0.0793121 -0.060165733 -0.017076988 0.04126287 0.028223895 0.068451844 0.08633912 -0.008583466 0.025326231 0.006759088 0.006620607 -0.08129744 -0.0025667713 -0.04251082 0.028137563 -0.03558308 -0.016103083 0.03732223 0.025903152 -0.07557961 0.025231885 0.00015478778 -0.01829991 0.0680564 0.07068682 0.018678477 -0.002084794 -0.024119062 0.049334258 0.03569959 -0.02185653 0.057719104 -0.06373431 0.044180147 -0.06896809 0.07127039 0.029730737 -0.05314753 0.026151022 -0.070673704 -0.0140773645 -0.010378469 -0.01883102 0.064762555 0.019336665 -0.017915333 -0.04648558 0.07278533 0.08564782 -0.048447695 0.04830657 0.07090243 -0.06857621 0.011487537 0.034549795 0.050746795 -0.06904836 -0.049067248 -0.0034424993 -0.08400639 -0.04179175 0.04165448 0.08196996 -0.021274721 -0.02751533 0.046735633 0.02502178 0.012365201 -0.056257922 0.013349034 0.009294989 0.08616271 -0.020991176 0.06218168 0.025422683 -0.057087 -0.0858506 0.06347369 0.028425954 -0.079773344 0.01351597 -0.052102517 0.06746536 -0.060069002 0.034295786 0.058933124 0.05231121 -0.030483318 -0.008221401 0.0039248304 -0.010815579 -0.077344485 0.048945013 0.0053233253 -0.0356376 -0.04138243 -0.07452547 0.037181802 -0.07865801 0.060811307 0.08847947 0.035755582 0.085801676 0.015399216 0.01890787 0.058797218 -0.06842725 -0.058006637 -0.054392327 0.031268578 -0.034773048 -0.039920915 0.073938 0.02921246 0.068622276 0.049385756 -0.0016401405 -0.038507253 -0.009614503 0.0785701 0.062645026 -0.01856364 -0.02293557 -0.07081966 -0.085958496 0.027334709 -0.013410595 -0.003625441 -0.06501165 0.06323385 0.0544386 -0.075429626 -0.06298245 -0.02917422 -0.028281832 0.008853301 0.08513381 -0.008259836 -0.00035308086 0.02267665 -0.0050970516 0.017635548 -0.057850987 0.003417172 -0.020371037 -0.038738605 -0.020002024 -0.086605966 0.045240104 0.020164717 -0.052557662 -0.07898851 -0.05159393 0.085996576 0.03352572 0.023515714 0.03932979 0.047627527 0.0425764 0.055259522 -0.02673644 -0.006767094 0.04200272 -0.024062803 -0.019284334 -0.0066707293 0.021880895 -0.08179925 0.0161782 0.047943298 0.0038109212 -0.04319584 0.058782972 0.04677193 0.03760016 0.017358394 -0.065751836 0.07445394 -0.062134564 -0.03848333 0.033839706 -0.08873384 -0.03865531 0.05791346 0.06220337 -0.074877694 0.013280587 0.06402564 0.0070543303 0.07144952 -0.008100022 0.07053241 0.040883727 0.00023410225 0.02325191 0.028897574 0.013370297 -0.02226759 -0.01828577 0.040332485 -0.054143064 -0.0051492886 0.066047356 0.08537489 0.06496842 -0.01119299 -0.031646788 -0.060725883 -0.07947012 -0.036057707 -0.045062818 0.06935378 0.075471215 -0.047833566 0.012542682 0.060735047 -0.04589017 -0.053284463 0.014921159 0.049798094 -0.062209327 0.025462491 -0.037093196 -0.063633755 -0.0009850045 0.002815477 -0.06507756 0.046750985 -0.02018417 0.046811383 -0.058038697 -0.012726801 -0.030835377 0.06465255 -0.0058573415 0.0030288156 0.010101247 0.058574304 -0.061057337 -0.07564244 -0.02745139 0.0018529566 -0.044970848 -0.03445662 0.08729621 -0.033544857 -0.030745044 0.008555432 -0.016162928 0.075999364 0.056637086 0.005409217 -0.01737998 -0.08420489 0.058427162 -0.038956225 -0.070240915 0.059415095 -0.03835805 0.051609468 0.08547267 -0.025773956 0.026854917 0.056520246 -0.07429756 -0.08600305 -0.06328204 -0.05443853 0.07357261 -0.062772825 0.072950296 -0.045008805 -0.041660625 -0.043516804 -0.05132285 0.013560098 -0.08605144 0.014432901 0.02823242 -0.08000837 0.05823241 -0.03139077 0.018641038 -0.086765595 0.030042099 0.058251414 0.065093644 -0.0025489428 -0.03067106 -0.055390462 0.03718877 -0.07226641 -0.0879569 0.0022855469 0.068997584 -0.013075698 0.07293592 -0.08292646 0.07434199 -0.08641309 -0.03511803 0.011960006 -0.044047564 -0.0072591286 0.056695025 -0.017495057 0.065284446 -0.014767237 -0.08189734 0.076815404 -0.055883426 -0.08558328 -0.059134834 0.031645868 -0.054869674 0.051892594 0.022330571 0.071907155 -0.078661226 0.046166763 0.059147432 0.06878477 -0.030695701 0.06313778 0.0009487843 0.047417346 0.00062567514 0.008764594 -0.06813293 0.047033917 0.060680762 -0.05847739 0.03747713 0.025370939 -0.04426892 0.00801399 0.02091373 -0.013699587 0.055925317 0.026387723 0.011095188 -0.08381582 -0.028084101 -0.003211611 0.032763388 -0.0766369 -0.08903494 -0.07593412 0.08378041 -0.035674576 0.07293141 -0.0071704136 -0.050550066 0.033409033 0.07999463 0.07032941 -0.046690874 -0.08813811 -0.055334654 -0.077573694 -0.08399411 -0.034629896 0.045505136 0.04689004 0.002501874 -0.00939727 0.02831875 -0.046384875 0.03793843 0.06088271 0.058271058 -0.04397213 -0.06922484 0.08140894 -0.073553525 0.087546095 -0.041419197 0.0009449178 -0.07601128 0.0868851 -0.07709545 0.06994105 0.01713248 -0.07428041 -0.053527385 -0.031887546 -0.076355286 -0.08508071 0.053787988 0.006762427 -0.015083651 -0.04657905 0.07328155 -0.08401968 -0.02740789 -0.06820279 0.044134557 -0.079197615 0.065207675 0.022516012 0.06274503 -0.04963307 0.06448276 0.07439653 -0.02952811 0.05367969 -0.00027613845 0.021238985 0.06317137 0.04742082 0.03675874 -0.018772842 -0.05309399 -0.06863459 -0.08397583 -0.03755889 -0.025274076 -0.048227113 -0.0034490556 0.08253602 -0.046963394 0.014107598 -0.048520938 0.00731655 0.05373151 0.004318253 0.07906029 -0.0033104008 -0.016618036 0.011019723 0.015736196 -0.028033558 -0.08466948 0.0689124 -0.05727702 0.067450486 -0.05968147 -0.057694286 -0.0027471643 0.04648086 -0.0058002025 -0.014674232 -0.07071631 -0.057669066 0.0638023 -0.066578224 0.0041404325 0.07453271 -0.01395548 -0.0653452 -0.06583552 0.03740386 -0.07477601 0.0075277286 -0.050114967 -0.07296508 0.009359967 0.080207385 0.042336605 -0.08294919 -0.02508338 -0.010356501 -0.061983872 0.014635972 0.077125736 0.031416055 -0.08483798 0.05154298 -0.07857275 -0.052057814 -0.08833516 0.040238366 -0.0056001563 0.06442146 -0.051942643 -0.067894645 0.06806022 0.06036493 -0.08530344 -0.087333895 -0.04567651 0.069151595 -0.057859976 -0.0017423513 0.019032314 -0.032744695 0.04678487 -0.050855387 -0.026929595 0.06611422 -0.07095881 0.024808478 -0.08028633 0.036324378 0.024167197 0.085199416 -0.06758479 -0.01677049 -0.07355571 0.03057922 0.08520147 0.054523353 -0.06629126 0.07263431 0.032991353 -0.004538041 0.074391246 -0.05700955 -0.025511209 0.065484464 -0.07190938 -0.05508238 0.049234815 0.034060262 -0.050826088 -0.047142025 0.052252613 0.037001062 -0.08472387 0.05381028 -0.08250311 0.03768222 0.04826868 0.052042063 -0.071633555 -0.043397415 0.0580601 0.07136712 0.07421911 -0.07061328 0.051075336 -0.040656842 -0.072580606 0.03100618 0.08338978 0.08051178 -0.01894339 -0.025729124 -0.06478524 0.045669347 0.014960388 0.057723444 0.04664735 -0.07752567 0.04270398 -0.065436475 0.04482467 -0.004280297 -0.01364586 -0.023059407 0.03409138 -0.040444855 -0.014391364 0.008023547 0.06256346 -0.06616642 0.019581866 0.031511355 0.07351081 -0.03460457 -0.008520264 0.08019017 -0.029893989 -0.04237426 -0.03901656 0.004704864 0.049167205 0.07639872 -0.011240141 -0.030516323 0.055485755 -0.041540887 -0.05173969 -0.002932227 0.08615395 0.0274173 -0.07142119 -5.7273995e-05 0.045405123 0.046115525 -0.059124153 -0.027657894 -0.050767295 -0.019777294 -0.07938562 -0.060443472 -0.029118985 -0.07449528 0.01213561 0.05602092 0.0042516375 -0.073098525 -0.056428596 0.0032764089 -0.07295279 -0.020548062 -0.06974925 -0.036183786 0.049772292 -0.038724765 0.03263365 0.07097344 -0.079520606 -0.027465008 -0.05802871 0.030173253 -0.028095806 -0.061853096 -0.022740202 0.058136817 -0.016232604 -0.07726522 -0.0667103 0.017706193 -0.020374311 -0.07838015 0.049608123 0.0247207 -0.083528005 -0.06821441 -0.02309549 -0.08463317 -0.008018033 -0.059845123 -0.05238196 -0.056928758 -0.02367565 -0.07126687 -0.08671666 0.063529655 -0.08188316 -0.041179277 0.087388486 -0.07005485 0.036119215 -0.041290358 0.066479445 0.031637434 -0.016478363 0.01569577 0.00080147205 -0.011710166 0.036587406 0.02053377 0.046557434 -0.02310362 -0.0380359 0.030559644 -0.03061805 0.0077714194 -0.08158178 -0.08126902 0.0032515742 -0.0680601 0.0024526666 -0.07820105 -0.0033410073 -0.086843744 0.0010897581 -0.057206813 0.06222062 0.026027495 0.05700718 -0.051791407 0.015453919 0.073688306 -0.037566777 -0.07858278 -0.04089545 -0.02805688 -0.049349867 0.01667383 -0.035952684 0.053800344 0.07492874 0.026306737 -0.0486245 -0.07051507 -0.029983267 0.045599904 0.072505385 -0.054105386 0.086341076 -0.07346732 -0.077766545 -0.049383953 -0.07560258 0.015168588 -0.06680339 0.052758384 -0.08477929 -0.037534565 -0.034703612 -0.049801953 0.020215793 0.042249393 0.027783323 -0.061002873 -0.0010310209 0.035020053 0.022096211 -0.021561597 -0.08699958 0.07821301 -0.042851552 -0.06409348 0.00049578876 -0.07687414 -0.07184637 0.056724682 -0.08525503 -0.0831686 -0.07602111 -0.045705624 0.024818277 0.06625933 -0.04460846 -0.019117162 -0.040284473 -0.052179944 0.020600036 -0.024541397 0.008707004 -0.074839674 0.013365019 0.004551663 0.029093849 0.04917468 -0.022626579 -0.048257925 -0.07706033 -0.060215782 0.017327419 0.06709065 0.044588458 0.057833746 0.025062818 0.017464774 0.08647785 -0.07928584 -0.059447348 -0.03811482 0.011040299 0.082052656 -0.0040161423 -0.028761463 -0.026422067 0.08204157 0.0486718 0.04928818 0.0140054235 -0.07685621 0.08560287 0.07946997 0.008718388 -0.014078071 0.010898389 -0.040942036 -0.055598404 -0.052980527 -0.07681277 -0.012043397 -0.010140852 -0.045877453 0.062318757 0.08159801 -0.062463716 0.08203266 -0.046961717 0.06790905 -0.0542949 -0.023587765 0.0834809 -0.021725811 -0.076716185 -0.026672322 -0.082310185 -0.051937304 -0.069832295 -0.059159514 0.06228689 -0.055496395 0.07145394 0.060034342 -0.023999587 -0.025803497 0.057202537 -0.057801157 -0.048680548 -0.0201603 -0.07352284 0.020210765 0.018714782 0.009686615 0.054894213 -0.014358183 0.010020961 0.042070877 0.077105716 0.073069304 0.013463622 -0.07868252 -0.03927497 0.07909665 -0.014812751 0.082675174 -0.010280897 -0.06678562 -0.0062741432 0.07450027 0.08692862 -0.07787054 -0.0887996 -0.07031604 -0.011970178 -0.08398674 0.06306786 0.07966804 0.030373827 -0.08249293 -0.0036649841 0.013153967 0.04281028 -0.030565528 -0.02196824 0.06935269 -0.010390954 -0.011696132 0.015088786 0.029287333 0.048985295 -0.0007580549 0.022799466 0.04889224 0.030733531 -0.06211522 -0.059435245 0.08013048 0.032709662 0.026256246 0.057662614 0.011474662 -0.019846857 0.0832337 0.031014204 0.07673205 0.0813137 0.024661416 0.06787764 -0.07949652 0.03604878 -0.0007035807 0.024808714 -0.078177474 0.040172283 -0.06498104 -0.068738066 0.022443531 0.033417627 -0.069456786 0.06623262 -0.033033635 0.065523505 0.076157786 0.021601507 0.032223884 -0.03854547 -0.005827585 0.06079051 -0.03870237 -0.045351792 0.066105105 0.04711641 -0.073902644 -0.028205125 0.04907674 -0.055575218 0.031256173 -0.075122744 -0.035373632 0.021989884 -0.00957127 0.004618227 -0.055861313 -0.07483096 0.028302614 -0.0038645375 -0.07549878 0.06296045 -0.029518617 -0.058533087 -0.06715643 -0.0006446646 0.0075197816 0.06055586 -0.036390003 0.06210329 0.028489303 -0.013006341 0.06874484 -0.061921127 0.023999326 -0.049706247 0.008355485 0.05817248 0.045530092 -0.009617938 0.020599116 -0.086769536 0.0663323 -0.036596842 0.0321097 -0.077984385 -0.015030661 -0.07206779 -0.048223328 -0.0019899444 -0.08121779 0.07721822 -0.0746 0.001914352 -0.06924427 -0.011209817 0.045142867 -0.075706504 -0.024538806 -0.048186615 -0.038687073 -0.0053673014 -0.0420933 0.046042316 -0.027614925 0.009992102 -0.061494112 0.019551754 -0.07851394 -0.057800747 0.031352032 -0.047035713 -0.038741473 0.06602133 0.0006987456 -0.028217046 -0.028204046 0.0043147304 -0.0065871985 -0.04275289 0.049284946 -0.07114645 -0.004885353 -0.049893856 0.0187422 -0.034856662 -0.005607459 -0.0022743656 -0.085252814 -0.0016480208 -0.021205116 -0.038145103 0.033898655 -0.07953189 0.027236773 0.056541014 -0.05470008 -0.062470254 0.006075347 0.059859782 -0.057059344 -0.044482414 0.041066628 0.07085368 0.05711767 0.08100756 0.01810807 -0.07960273 -0.00020146846 0.06821621 0.052286576 -0.040018585 0.04557801 -0.057503667 0.019487642 0.05645803 0.059850134 0.053259525 0.0500194 -0.086203024 -0.04001813 0.042602323 -0.038739294 0.021449469 -0.07569217 0.019329248 -0.005967878 -0.083514646 -0.024685565 0.033609826 -0.06708652 0.018562205 -0.012714743 -0.07424222 -0.03636367 -0.03141996 -0.03203645 0.005642058 0.025175754 0.06824879 -0.016985165 0.008070753 0.076303616 -0.029680522 0.069474585 0.061757147 0.06115418 0.011646806 -0.044313602 -0.017700102 0.03099616 -0.048023753 0.054086648 -0.08882018 -0.03852938 -0.031441044 -0.023666482 0.05551196 -0.08891746 -0.020615822 -0.028841594 -0.07278692 0.06556383 0.05348482 0.08677911 0.06537396 -0.087645486 -0.071601555 -0.07582279 0.031052208 0.052916095 0.07536158 0.044615448 0.07838949 -0.05783494 0.052459914 0.08025756 -0.012613753 0.062059354 -0.013145217 0.014987588 0.008925376 -0.039728716 -0.06982129 -0.056535304 0.079108804 -0.0054167816 -0.06598778 0.028940033 -0.08589602 0.016366228 0.054052602 0.0032649701 0.00032613808 -0.05600976 0.020537125 -0.0658434 0.00409425 0.068413734 0.06844631 0.043864176 0.03648269 -0.081010684 -0.058949325 0.0065200925 0.07278592 -0.054095343 0.081781976 -0.01811281 0.02154562 -0.088711075 0.02951449 -0.03045774 0.08315186 0.040822797 0.08411149 0.049861226 0.025205398 0.07480664 0.06627466 0.035934605 -0.00989127 0.020264179 0.032309502 -0.07264274 -0.08797558 0.030174876 0.061257813 0.04844568 -0.071315676 0.033180416 -0.0399019 0.052663937 0.03601932 -0.015242688 0.06620206 0.055561677 0.018043144 -0.050569467 0.004442624 -0.029555859 0.008225467 -0.0074719745 0.028789029 -0.07992689 0.042586338 -0.019009637 -0.013616809 -0.05981902 -0.068510056 0.008128329 0.038202222 -0.08696218 0.032336943 -0.074079715 -0.043870743 -0.042161755 -0.050753947 -0.017073642 0.06429008 0.05618814 -0.089202516 -0.030189624 -0.021918485 -0.08181002 0.030480655 0.08370059 -0.057098806 -0.0753666 -0.021391293 0.034417916 -0.030562248 -0.07069609 -0.033521395 -0.0146284485 0.057402715 -0.052908733 0.019262427 0.06541193 -0.005660781 -0.025236184 -0.004765406 -0.07030113 -0.087529615 0.011878762 -0.0483701 0.06705136 0.07431534 0.04115718 -0.031442676 0.048821677 -0.08179689 -0.028057722 -0.08416276 -0.032740235 -0.007053274 -0.024029758 -0.004990494 0.05652368 -0.07935029 -0.05952244 0.057031043 0.008579682 0.08547026 0.00405351 -0.06704226 -0.042693343 -0.023074277 -0.015852187 0.03659766 0.0453964 0.019693863 -0.03330648 0.048306677 0.053316183 0.037734754 -0.060613874 0.010639676 -0.08715516 0.021197107 -0.080216594 0.028477991 0.05387367 -0.06888405 -0.08031779 -0.06997898 0.034816936 -0.08213465 -0.050887834 -0.08859617 -0.040601343 0.020933416 -0.08134139 0.004578797 0.029576026 -0.080511525 -0.046114232 0.07522166 -0.0560332 0.0843845 -0.0032512834 0.02088069 0.031735905 -0.039346136 0.08765013 0.008552342 -0.0013327994 -0.041247595 -0.07988598 -0.05059319 -0.034075875 -0.07029467 -0.0055460357 -0.017670417 -0.025059754 0.025684258 -0.0039365487 -0.050505847 -0.070482545 0.05600701 0.05434736 -0.009346939 0.0691709 -0.058727898 -0.06269604 0.06917808 -0.05469706 0.036585793 -0.019049153 -0.030837478 0.05869123 0.013639101 0.085716166 -0.0011650119 -0.087418586 0.05084617 -0.087148674 -0.007146371 -0.07774187 -0.009540295 0.034701332 0.008214691 -0.05316926 0.07423291 -0.08377339 -0.013800131 0.014063749 -0.058636244 0.052675735 -0.037656076 0.04187256 0.06744214 0.042879593 -0.011937459 -0.07756205 0.08177679 0.01545412 0.053046357 0.050539523 -0.0061588 0.026046446 -0.0134956185 -0.019319963 -0.0055013876 0.041712135 -0.045995653 -0.04978176 -0.038890675 -0.019365083 -0.045753434 0.076996505 -0.008359992 0.08001289 0.030638913 -0.016465304 0.03266552 0.052295357 -0.050404128 -0.01028975 -0.063185126 -0.012235457 -0.07881272 0.066475965 -0.03870915 0.04452561 0.08679569 -0.076603666 -0.042996492 -0.06738292 0.0065865107 -0.028554352 -0.014754018 0.05136358 -0.046353687 0.06538106 -0.010601418 0.0051439162 0.07372703 0.051241238 -0.0708058 -0.047870405 0.0514324 -0.026566211 -0.048412234 0.047955543 0.053187672 -0.08649147 -0.031734157 -0.027805677 -0.06684735 0.043454092 -0.008124919 0.0062360778 0.0005841851 0.04959242 0.038013715 0.024476111 0.01398972 0.077576645 0.009040288 -0.08420687 -0.029841153 -0.005983602 0.07968406 -0.043119036 0.059168044 0.08207574 -0.055067 -0.066798106 0.023989972 0.044052936 -0.07015446 0.06674067 0.077218264 -0.07746342 -0.041863337 -0.031132616 0.07237365 -0.03772988 0.008864788 -0.01494018 -0.07821566 0.024131773 -0.041957736 -0.07836771 0.023449078 0.075489044 0.016012842 -0.051719893 0.0004149538 -0.07040838 0.020963103 0.074575804 0.02542407 -0.02533665 0.06100375 0.07354972 -0.011933301 0.05540415 0.045945704 0.03435516 -0.043722052 -0.03731249 0.03332058 -0.003196756 -0.013452097 -0.024838451 -0.06298711 0.0052676867 -0.07767358 -0.0073222243 -0.045073625 -0.0015955853 0.009132423 -0.035985317 0.07804028 -0.044209026 -0.07329289 -0.072048284 0.029808454 0.041714136 -0.06526134 -0.08671563 -0.043178163 0.044373225 -0.08155926 -0.047017377 -0.01107883 0.0048569296 -0.087348096 0.08240563 -0.08473685 -0.055987924 -0.03896589 0.02467395 -0.056726366 -0.033869006 0.07178087 -0.0809023 -0.014823963 -0.029276408 -0.07299775 -0.02904438 -0.009595453 0.058437627 0.05008884 0.020436455 -0.06827742 -0.085237086 -0.009590734 0.07110659 -0.0055730427 0.053170767 -0.06323233 0.076311775 0.004911047 -0.06354163 0.05531504 -0.057288088 0.0339031 0.01688202 -0.011168725 -0.04906748 0.022761006 0.08003815 0.04278214 -0.0788499 0.03784172 0.08175591 -0.07792825 0.019828672 0.031611778 0.0778105 -0.012725024 -0.014167175 0.06131421 -0.074138746 -0.01937627 0.05915585 0.0052147675 -0.06470414 0.009486079 -0.049757592 0.072947346 -0.036222648 0.0013294059 -0.085429 -0.07518831 -0.006278549 -0.04836398 0.013163856 -0.08506005 -0.042406946 0.028588515 -0.08438602 0.018849071 0.007891268 0.07758385 -0.008114552 -0.03203538 0.03459996 -0.0666003 0.03829062 0.0308334 -0.009780578 0.059882764 0.07972955 0.057633266 0.051208925 0.082038395 0.028346244 0.001410071 0.030214418 -0.027775561 0.026645407 0.0047612553 0.04593396 0.06014638 0.0044705085 0.048831414 0.08681789 -0.03444857 0.058673736 -0.021879418 -0.055753306 -0.048351213 -0.057740416 0.07455605 0.075130306 -0.069932684 -0.06506693 -0.05549433 -0.024082087 0.08033766 0.0038949319 -0.0674792 0.039523263 0.07435232 0.08151777 -0.04486514 0.014701471 -0.01288779 0.06885434 -0.0069777556 -0.08457 -0.051598158 0.008837852 0.08079011 0.016962597 0.009110302 -0.061559968 0.065277584 0.05225368 -0.065713115 -0.047177576 -0.023731342 0.068260714 -0.06522363 -0.047857076 0.02747288 -0.07545768 0.050555084 0.062100664 0.052986585 0.03422676 0.0064072963 0.007387693 -0.019587712 0.030557455 0.008034591 0.02144662 -0.038269732 0.036985647 -0.008581758 0.056160618 -0.03832273 -0.072304845 0.04915591 -0.055748407 -0.002475627 -0.08706143 0.0004769986 0.075021006 -0.0623386 -0.07166077 0.055211086 0.04825903 0.04086404 0.044025403 -0.010703608 0.031682886 -0.031087875 -0.02497287 0.063135654 0.02268005 0.004341383 0.05623958 0.0046872525 -0.009349323 0.012514564 0.063728265 0.0060904124 0.056596145 0.051597882 0.075198896 -0.03900303 -0.034483273 0.036027025 0.038049646 -0.03359972 -0.029913643 -0.07958053 -0.046949126 -0.030803993 0.019998064 -0.0044907858 0.02831547 -0.010399343 0.080225706 0.082103215 0.08110309 -0.04567222 0.073250994 0.050077766 -0.06135276 0.06598444 -0.08227823 -0.04945698 0.08552859 0.010404625 0.004754417 0.027950138 0.035698898 -0.0028453574 0.018732544 0.024335802 -0.07123826 0.036359627 0.057111148 -0.049602803 0.08736998 -0.032652333 -0.085233465 -0.073603615 -0.05749472 -0.0113197295 0.05538187 0.04260652 0.07850964 0.005535446 -0.07523254 -0.003881635 -0.047688257 -0.00434147 0.008551074 -0.06238324 0.028581081 0.064276606 0.03135275 0.016130695 0.05059214 0.052424446 0.049433377 -0.012592164 0.063959114 -0.02039537 0.033818588 -0.007290544 0.021212503 -0.055130985 0.035681956 -0.07969512 -0.03854998 -0.03769633 0.06353132 0.047748398 0.066469766 -0.04875786 -0.015139787 -0.031132167 -0.074933656 0.07667583 -0.050171133 0.08653223 -0.012296406 0.041739963 -0.0061294893 0.030553162 -0.021542586 -0.0497977 0.044750594 0.0764 -0.07570122 -0.009215522 -0.045842234 -0.07493837 0.005845213 0.05040484 -0.08604873 -0.03322693 0.018067928 0.08357634 -0.027409917 -0.0036503014 -0.044148706 0.027422896 -0.050894175 -0.030244427 0.008911069 0.041109174 0.049789436 0.03337292 0.085702166 -3.760652e-05 -0.043634556 -0.0025881294 0.011497493 0.036628682 0.07721886 -0.05452817 0.016658163 -0.08177083 0.070583746 0.051181555 -0.059270147 -0.035551187 0.022860086 0.04199411 -0.056663483 -0.0076358207 0.031884667 0.0077555655 0.034458004 0.026632018 -0.015447528 -0.08664674 0.04631451 -0.070584774 -0.065373585 -0.08077497 0.07034966 -0.05657774 0.08128049 0.02653502 0.072166406 0.0639175 0.07323567 0.048206758 -0.056480322 0.0048466236 -0.012881298 0.017438106 0.07960274 -0.08761766 0.02196088 0.01965669 -0.019905923 -0.023067499 -0.064492814 -0.05837386 0.015548808 -0.07830755 0.07801462 -0.011547648 0.048359707 -0.08456653 0.07307184 -0.045637995 -0.030949378 0.030256018 0.03883719 0.024361717 -0.055608395 -0.07299131 0.041020412 0.07625783 0.08702087 0.015987735 0.049148872 -0.05392093 -0.0408321 -0.077573925 0.028470738 0.0065870294 0.07216686 0.061670374 0.030943537 0.06784124 0.031567205 -0.07097919 -0.08725418 0.012893063 0.010897778 -0.03399084 -0.036804263 0.06667989 0.057816714 0.040679418 0.05162751 0.028120829 -0.025571734 0.0098705515 -0.07293491 -0.07987383 0.022798248 0.052912273 -0.044354275 -0.083003834 -0.06307775 -0.02199038 -0.0024287447 -0.053342983 -0.053015355 -0.02111074 -0.08564536 0.073646836 7.664891e-05 -0.0005416277 -0.034015488 0.06193539 0.020291325 0.005698861 0.04597499 -0.052706793 -0.035440896 -0.0056046937 -0.019365415 0.08187138 -0.05739959 0.01290878 -0.06080171 -0.020405987 -0.06514211 -0.024341302 0.07601746 0.03953825 -0.009273611 0.067322224 0.0066235117 0.067649715 0.022897422 -0.041494124 0.06307579 -0.07675997 0.012075807 -0.06573654 0.058388945 0.027626785 0.02577215 0.043306302 0.056161206 -0.037426643 -0.08672714 0.05250208 0.04114543 -0.047044743 -0.056910127 0.030082483 -0.036518097 -0.05576465 0.03183457 -0.049745858 0.08129712 0.030429047 -0.057393786 0.05545303 0.052253317 -0.05135327 0.015239539 0.02327235 -0.018845832 -0.01612965 0.044990808 -0.024804527 -0.048293456 0.012802686 -0.046378642 -0.061293375 0.08258843 0.009307168 -0.0107924845 0.056618545 0.07556667 0.049830217 -0.033508018 0.063969746 -0.061702248 -0.004206569 -0.072998665 0.0015456585 0.08403613 -0.07948582 -0.014768039 -0.039668627 -0.07945551 -0.008194594 0.07650062 0.001712802 -0.08751574 -0.01069706 0.06673798 -0.00089686725 -0.08355289 -0.053745776 -0.02311903 -0.024292141 -0.08772089 -0.018927673 0.0738971 0.054377183 0.029734828 -0.01437215 0.08709297 -0.05817289 0.07951772 0.0081506325 0.04175322 -0.02217689 -0.02029161 -0.059595827 -0.060184117 0.06427746 0.016305033 -0.065272026 -0.008139225 0.035778977 -0.01147238 0.057502806 0.08128782 -0.051877923 0.0058333976 0.0099157905 0.0725025 -0.06270612 0.065143384 -0.007437339 0.038319927 0.06383885 -0.07632487 -0.06728784 -0.053481847 0.05491192 -0.06758586 -0.029318737 0.054116283 -0.00334883 -0.027633615 -0.08033233 -0.054554466 -0.049281623 0.08146304 0.050754767 -0.08877206 -0.023948291 -0.06455519 0.04915293 0.008383685 0.018868072 -0.039032944 -0.07715667 -0.082846545 0.003052177 -0.061984748 0.025828388 -0.081509724 0.08277885 -0.012106761 0.039596397 -0.012013266 -0.076194055 -0.08323457 -0.07702583 -0.04685894 -0.05892506 -0.02548712 -0.077200115 -0.068672635 -0.029174028 0.05387354 0.005583101 0.060855564 0.054777 0.013734691 0.07375343 0.007794059 0.028743986 0.038200285 0.062687635 0.018124891 0.018193908 -0.05620802 -0.034680024 0.0037821152 -0.051693436 -0.060060848 0.05082294 0.06755557 -0.042562876 -0.051708672 -0.010572463 0.07044364 -0.03940186 0.0732453 0.036952525 -0.00026144905 -0.02936363 -0.07809288 0.03319523 0.036472354 -0.016208382 -0.072197534 -0.050148122 0.054748464 -0.022083463 -0.034996707 0.0854276 -0.02224423 0.026715647 -0.028894447 -0.07383757 -0.043096676 -0.010629656 0.03585899 -0.008722149 -0.047424223 0.009904352 0.046059757 0.06772611 0.046867687 -0.043343246 -0.013347693 -0.031852394 0.08501887 -0.067943424 0.07295352 -0.07995187 -0.08387198 -0.082283 -0.08942609 0.067257926 0.039176315 0.03688181 0.07213689 0.062374227 0.08270912 -0.0840902 -0.026280679 -0.06364908 0.017101796 0.06517389 -0.055096976 -0.032732688 -0.069190055 -0.013958799 0.04607086 -0.076159686 -0.017541949 0.06224558 0.07561808 -0.016568774 -0.051835116 -0.018831836 0.018704966 -0.07966201 -0.08330195 0.007376619 0.045828916 0.0104259 0.013895687 0.08402547 -0.015347522 0.08177649 -0.088030785 0.016898645 -0.04183927 -0.0012433443 -0.013358631 0.05092659 0.020195808 -0.073108785 -0.0098486915 0.032397263 0.023791634 0.037590913 0.043156803 -0.03054954 -0.002458309 -0.03711167 -0.07862416 -0.06752562 -0.059273656 -0.08247584 -0.086686894 0.03385739 -0.056446064 -0.08115357 -0.05457341 0.008987016 -0.08051444 -0.052956756 -0.086140215 -0.042242154 0.040488485 0.017807456 -0.003265294 0.07510192 0.028471727 -0.06384389 -0.034407355 0.006394552 -0.069362916 0.036801066 -0.043881018 -0.059984844 0.08680281 -0.04953264 0.027028691 -0.0059487587 -0.01720376 -0.07480246 -0.0492342 -0.051982842 -0.08797542 -0.08499983 0.007891414 -0.013318352 -0.025275083 0.023485662 -0.052854 -0.018250795 0.04178543 -0.041505985 0.036688235 -0.047108427 0.0862638 0.04829454 0.06424681 -0.07900041 -0.010829346 0.029117877 -0.05006922 0.074256346 -0.080671854 -0.06885419 -0.049859904 -0.0026780025 0.062444475 -0.013834423 0.06867858 -0.05676851 -0.053363297 0.041910544 -0.02254895 -0.07867372 -0.059859924 0.03725717 0.059308313 0.05350281 0.045503628 0.036449365 -0.06910759 0.014575882 -0.041079465 -0.059653614 -0.03388172 0.00015663581 -0.088871524 0.031276073 -0.06884867 -0.03833662 -0.0812011 0.045712613 -0.07541389 -0.049713835 -0.07599901 0.06181676 0.013042634 -0.014530735 0.055988338 -0.05522619 0.052961346 -0.06060147 -0.01404944 0.0016814779 -0.08793401 0.059170194 -0.0787187 -0.0222339 0.0633315 0.02894652 0.02615871 -0.04573145 -0.012192741 0.023438584 0.0430463 -0.07428762 -0.07716262 0.06579016 -0.085624285 -0.01356164 0.019169386 -0.052942235 -0.04202236 -0.025883133 0.043162752 -0.08055919 0.014398967 0.04792967 0.05510741 0.050962172 0.082587145 -0.036440864 -0.027064297 0.0041180435 -0.054780044 0.029035505 -0.0116163 -0.019967992 -0.008813781 0.0035936262 -0.051589493 0.0068521188 0.05631447 -0.07805863 -0.07241432 0.058979563 -0.022590555 -0.015083318 -0.036339503 0.06516348 -0.06260912 0.057933424 0.07176088 0.06435858 -0.0008150835 0.021007374 0.06862841 0.07334234 0.04740228 -0.068879716 0.08529269 0.02557384 0.032911878 0.010955023 0.015693722 0.00353874 0.0019430539 -0.030137926 0.034614626 0.049549166 0.023271259 0.056448214 -0.016791718 -0.057223335 -0.041317664 0.069023594 -0.065207824 0.0032317769 -0.06502931 0.007090985 0.011906994 -0.075725354 0.026443591 0.037356555 0.07527878 -0.026292942 -0.016647073 0.05929141 0.0225912 0.013921915 0.061235677 0.0072850552 -0.00015782658 0.047518045 -0.08305738 -0.049272396 0.023389202 0.078292586 -0.029252825 0.08718662 -0.0033745884 -0.014737621 -0.008695882 -0.06698789 0.009311864 -0.08389556 -0.014331919 0.06269911 -0.05016264 0.06156344 0.052765958 0.07609211 0.036417097 0.04472569 -0.053905234 0.002662637 -0.06663726 -0.0074413856 -0.003071896 -0.047781717 -0.063697495 -0.055062525 0.009414658 0.056309916 -0.04650847 0.040673684 -0.031696066 0.045672063 -0.03126256 0.03697761 -0.078875095 0.039936088 -0.05971655 -0.019519862 0.021974297 -0.008775273 0.06902418 0.056066196 0.0066033765 0.032011684 -0.044532422 -0.030056417 0.083317526 0.02879459 0.020575343 0.027326183 -0.0796476 -0.062099315 0.047490038 0.02104678 0.07311334 -0.059330806 -0.049897347 0.010433188 0.001095001 -0.08778363 0.07426599 0.08465544 -0.087585844 0.03847396 0.01775655 -0.059628315 -0.045938026 -0.03195009 -0.045896247 -0.0032872118 0.05926513 0.041500147 -0.07149788 0.026633253 -0.07049886 -0.03266561 0.048938878 0.029440539 -0.019509377 0.0061324434 -0.004786588 -0.0830974 -0.07332789 -0.011885521 0.044203456 0.053910814 0.030007407 0.042651966 0.03279086 0.06718421 -0.018080683 -0.052198812 0.036920607 -0.07961406 -0.04707494 0.021220239 -0.026875531 -0.08813451 -0.039928988 -0.079748064 0.010020077 -0.026596457 0.05048135 0.020650294 -0.044003397 0.06309833 0.08737036 -0.007137893 0.04984703 0.0720716 -0.01136328 -0.0045555383 0.056707356 0.0051663644 -0.026977938 -0.025518125 0.0348986 -0.033302955 -0.029523652 -0.040148202 0.07480625 -0.08549486 0.0035113501 -0.06407956 -0.025333928 0.083020136 -0.014856856 0.03003974 -0.009935314 0.08459207 0.0017293162 -0.03297847 -0.08458724 0.04375022 -0.044819176 -0.049806274 -0.00022951848 0.016101154 0.024935836 0.02305389 0.006407882 0.050782885 -0.032519165 0.04355874 0.0092068985 0.041599736 -0.053447567 0.025147965 0.044043057 -0.07744427 -0.022026824 -0.08070406 0.04988123 -0.035492737 0.008726914 0.04479821 0.002633285 -0.06326659 0.0872376 -0.082895316 -0.0433674 -0.06957899 -0.016526975 0.027791873 0.052517656 0.018336521 -0.062308956 0.043279856 -0.06299545 -0.0048229992 -0.021629348 0.0041356287 0.011323958 -0.06672725 0.08395277 0.03850867 -0.082152896 -0.01299283 0.087603495 0.021736022 0.048222244 0.059788033 0.0005693223 0.03698773 0.05131238 0.021972185 -0.06590084 -0.053019576 -0.037662875 0.0049941973 -0.032752577 0.012724945 0.036446616 0.0779311 0.0045026694 0.08679305 0.018757561 0.055596594 -0.06943586 0.07882912 -0.06427009 0.05346644 0.014020605 -0.08296362 -0.058503374 -0.077747315 -0.0516933 -0.002013692 -0.03473946 0.0748281 -0.016164219 -0.037999608 0.07665797 -0.0023732772 0.0117754275 -0.04027842 -0.023791157 0.04371612 0.047213767 0.0004041243 0.027146708 0.046331998 0.015915187 0.07268722 -0.04181614 0.007085752 -0.084455326 0.06778291 0.0800851 -0.083527215 -0.0049801157 0.05004311 -0.059433278 0.027140142 0.0013028143 0.0048592594 -0.08153872 0.057940636 0.024927247 -0.025834497 -0.013138339 -0.043892164 -0.08500721 0.07482229 0.020458782 -0.034541555 -0.04764648 0.039149858 -0.051745906 -0.08186561 0.0864084 -0.055877063 -0.018460922 -0.039312173 0.035419937 0.06316077 0.062980056 -0.00601732 -0.08452421 -0.08331885 -0.024350295 -0.009484665 -0.0061747762 0.08145125 -0.05771482 -0.06512679 0.035830326 0.062952645 0.049667478 0.07727285 0.040921804 0.069693066 0.009993769 0.066981174 0.0065802447 -0.0033039788 0.031124337 -0.021176638 -0.07991998 -0.030456316 0.086069 0.009904091 -0.020376116 0.0020837637 -0.087467276 0.06762012 -0.040693287 -0.07670078 0.06312007 -0.002237975 -0.011134829 -0.06446859 0.054278743 -0.022778656 -0.075223126 -0.00021968619 -0.065669954 -0.07980485 -0.05524923 0.013189449 0.041346144 0.08314249 0.037312564 0.072179504 -0.012676076 0.06267921 0.022946153 -0.038903084 0.0034310273 -0.06129691 -0.0149729075 -0.05839576 -0.015470999 0.059713326 0.0066514798 -0.08559307 -0.062071662 -0.057632543 0.004428884 0.0027865306 0.03885315 -0.05952993 -0.038435742 0.06636225 -0.044335663 0.01889208 -0.023022506 -0.07425102 0.041284487 -0.052013565 0.03830276 -0.01744717 -0.058551952 0.054463908 -0.052688356 -0.0059718094 0.05106864 -0.04166113 -0.013925986 0.028190086 -0.010565249 -0.029484078 0.031755626 -0.07730698 0.053836323 -0.0024604658 0.07380008 -0.068153486 -0.05785772 0.057704117 -0.061373606 0.04714444 0.034785774 0.073355675 -0.054583646 -0.026009528 -0.06863749 -0.050655372 -0.06797859 0.020207405 0.028875079 -0.015630135 -0.06636642 -0.009224987 0.06444835 -0.086271144 0.06491482 0.01586971 -0.05360301 -0.039261818 0.06965381 -0.004936517 -0.05800902 -0.027524587 -0.0359978 0.073802866 0.0366704 0.048628226 0.03508229 0.0772329 -0.046319056 0.005157799 -0.0022163272 0.031078989 -0.06340377 0.0018712666 0.0040914402 0.00031708082 -0.07180345 -0.04241269 0.06697964 0.019660091 -0.0045875823 -0.051854208 -0.018919345 0.082689464 -0.08026559 0.026720589 0.033115055 0.015398081 0.013847696 0.056288335 0.04713202 0.08247004 -0.043797985 0.071756214 0.086628415 -0.02296382 0.06474298 -0.0046632774 -0.0835669 -0.069129735 0.07545175 0.048177663 -0.056460362 0.074573755 -0.0401922 -0.022325573 0.02603716 0.034341753 0.046278603 -0.08303184 0.08659686 -0.07012007 -0.06315498 -0.0384013 -0.078956984 -0.04488247 0.028696936 -0.004339523 -0.004629699 0.06050711 -0.08130003 -0.011455791 0.06634866 0.06499133 0.0414365 0.018800164 -0.084580354 -0.009631362 0.009194332 -0.03944199 -0.008313766 -0.082214296 -0.083359435 0.009586873 -0.076629885 0.04942586 0.014548056 -0.017830463 -0.037401076 -0.05230648 0.0074959863 -0.03770796 -0.0042681783 0.059440397 0.08320473 -0.036028884 0.037123848 -0.07508131 0.0756131 0.05684873 -0.060992982 0.08588449 -0.070711 0.069056086 -0.05389242 0.07249527 -0.06805463 -0.05437877 -0.08052735 -0.08232875 0.08406102 0.045958735 0.08644674 -0.0049958806 -0.055743754 -0.012311217 0.029451696 -0.0014193234 -0.07392444 0.07837921 -0.086270474 0.05009001 0.07332899 -0.017579654 0.06367676 0.068312876 -0.061517276 0.07678736 0.07678102 -0.0455846 -0.048487954 -0.033311717 -0.04784403 0.03833289 0.07721722 0.083768085 -0.014250193 -0.034070715 -0.023430401 -0.08303394 -0.08120979 -0.065891825 0.084651835 0.0063606314 -0.02753549 0.00881212 -0.021387117 0.014901946 -0.030995458 0.037383568 0.037707757 0.06084402 0.08643933 -0.010176029 -0.059703868 -0.011575706 0.033630434 -0.0023635242 0.03054591 -0.07940184 -0.0132159 -0.037902847 0.07038326 -0.07278303 -0.061046265 -0.0095625445 0.044615723 -0.071792714 -0.06364645 0.005318345 0.05577221 0.069564804 0.02915018 -0.033516366 0.052690804 0.054121982 0.024653716 0.061414037 -0.009675322 0.07285716 0.06449215 0.0034277383 0.046604767 0.06193452 0.007653386 0.028262379 0.06074743 0.007911597 0.024287144 -0.028913196 0.03689186 0.017143968 -0.08126921 -0.037526302 -0.045897204 -0.017802345 0.051466934 -0.06933405 -0.056024354 0.039364234 0.08206022 0.031086745 0.051223733 0.017326195 -0.051249247 -0.066798374 0.046510965 0.0036461684 0.07979336 -0.012367471 -0.07599632 -0.06664542 -0.029131282 -0.06704532 0.0373921 0.04868819 -0.057251632 -0.07703636 -0.03177648 -0.07695074 -0.074288785 -0.011209102 0.012795664 0.00020637302 0.016291235 -0.069925115 -0.052286305 0.083515495 -0.04541122 0.04856035 0.028646316 -0.058567334 -0.0123695135 -0.04979978 0.022175042 -0.013796727 0.07054103 0.0468362 0.023778556 0.0029728282 0.012817386 0.023444494 0.029445546 -0.048065737 0.054617282 -0.026349511 -0.08635114 0.016951703 -0.078081034 0.07322343 0.08438493 0.03758301 0.047244735 -0.030989433 -0.010899713 -0.030072615 0.05473473 0.016735489 -0.08421395 0.058311664 -0.03973523 0.027542448 -0.05122852 0.018870957 0.029423868 -0.06425942 0.070451036 -0.07923103 -0.031803805 -0.07571782 -0.07923194 0.064285494 -0.027357504 -0.001445455 -0.033715256 0.062028818 -0.013550216 -0.07579741 0.04514192 0.019655105 -0.07726247 -0.013358647 -0.06826362 -0.047288094 -0.053423095 -0.03260275 0.04972367 0.04593155 0.036892943 -0.048922535 -0.087985195 -0.05446381 -0.05512561 0.04016111 0.03568278 -0.088351965 -0.017854553 0.009509227 -0.011102468 0.056517467 -0.03716386 0.009396748 0.052903134 0.07048785 0.06756071 0.04863271 -0.08302773 -0.002196416 -0.084423244 0.052559335 -0.035612043 -0.040793594 -0.05259034 0.008582435 -0.04448606 -0.02073486 -0.04230907 0.007890158 0.06985674 -0.014443982 0.06820087 0.074664444 -0.08547792 -0.02733082 0.03017501 0.022048442 0.07070439 -0.08336773 -0.042644165 0.004955078 0.0278975 -0.0704723 -0.051843207 -0.071280174 0.013220343 0.067571424 -0.059047405 -0.08103233 0.029078715 -0.053029973 -0.0012160103 -0.044554677 -0.067455165 0.046107266 0.014083212 0.033018038 0.022085153 -0.0030347528 -0.08755956 0.0097552715 -0.022366013 0.08363325 0.063501716 0.027112141 -0.004830326 0.08465308 0.024041686 -0.035981555 -0.045760185 0.018187732 -0.029748324 -0.03500228 -0.040143315 0.06852728 0.022050409 0.028007438 0.04402096 0.046269577 0.026066829 -0.030010235 -0.07354979 -0.05639337 0.06640541 -0.02155824 0.009585022 0.010983099 0.005796142 0.0541821 -0.0051400037 0.03920686 -0.04332233 -0.07067244 -0.04261166 -0.0423574 0.03357297 -0.025629684 0.021890346 0.02578118 -0.02150835 0.07840795 0.007896688 -0.07347681 -0.0023094763 -0.0009681767 -0.05843156 0.0635884 -0.04689977 -0.06807894 -0.06966548 -0.01772487 -0.033819284 -0.007880252 -0.0029335103 0.02467223 -0.028401958 0.06842093 -4.548629e-05 0.080306076 -0.082568705 0.04327261 -0.025094664 -0.045786772 0.06807439 0.028919853 -0.004315469 -0.06528274 0.053310364 -0.03431135 -0.0777937 -0.06448254 -0.07959857 0.06068556 -0.013035055 0.05151962 0.05725003 -0.07241172 0.03502352 -0.0078563485 -0.024885332 -0.0055772504 0.023135353 -0.01606592 -0.0011437314 -0.037847012 0.024354296 0.009917559 -0.034409426 0.03089091 -0.017322488 0.023863697 0.04054355 -0.0858057 -0.07033757 -0.08708164 0.05489572 -0.05964586 -0.060697567 -0.067655586 0.056483015 -0.084404 -0.025462557 0.07068187 0.014952462 0.06393505 0.0394515 0.08484713 -0.025530284 -0.0184107 -0.021102915 0.086024426 -0.048012648 -0.08764638 -0.078674816 0.04517149 -0.02998037 -0.035246037 0.03191481 0.026455944 0.066880345 0.033564042 0.029559378 -0.007539732 0.06022704 -0.07705494 0.022408163 -0.050560232 -0.08360185 -0.0055397027 0.08146082 -0.014284465 -0.040204845 0.05648728 -0.032977026 0.03497339 0.086218104 0.024068477 -0.00040104226 -0.025458463 0.0706322 -0.003103141 -0.061358064 -0.05432402 0.06225238 -0.035463847 -0.03425738 -0.011231744 0.025903089 0.0001901615 0.07973714 0.07925507 0.017460387 0.035038315 0.071933225 0.07545265 0.04511025 0.012681384 0.039846677 0.017497713 0.017465003 -0.0080490215 0.003646647 0.08341523 -0.08136245 -0.029537002 0.04090029 -0.056755736 -0.037647966 -0.08332455 0.063644975 0.063228965 -0.034045517 0.065996036 -0.007095521 0.039766725 -0.060859915 0.026515556 0.07710007 0.050354984 -0.08639897 0.007471005 -0.02244689 -0.05155448 -0.05885645 -0.068870775 -0.070452005 -0.08253004 0.07484335 -0.0022482672 0.05356131 0.016383668 -0.048400313 -0.006944236 -0.077611595 0.0053824773 0.037351463 0.057529237 0.062090576 -0.005243675 -0.088348724 -0.01790936 -0.067534 -0.07342927 -0.075054474 0.03803625 -0.017555622 0.05820767 0.049223237 0.07901577 0.020918842 0.05620397 0.0036563172 -0.06550393 0.028435674 -0.027009651 0.0145414425 0.031236757 0.04086123 -0.04674324 -0.04795766 -0.0057707783 -0.015735013 0.0025908747 -0.028970992 0.047650166 -0.04710845 0.044584516 -0.070972875 0.042778023 -0.004487667 0.01578922 0.07146165 -0.0054393634 -0.04176768 -0.013388242 0.009646822 -0.028013187 0.07693018 0.0025480452 -0.040199254 -0.05325307 0.06268765 -0.07481847 0.020112382 -0.06136161 0.044971373 -0.010203733 0.037020873 0.020662637 -0.053320944 0.040754993 -0.01721751 0.08758912 0.064379714 0.008021907 0.06018687 0.026600907 -0.008768475 0.04096983 0.062537156 0.0037349802 0.066100195 0.010995765 0.08280303 0.022720588 -0.049650595 0.04900062 -0.00848969 -0.038513407 -0.085989244 -0.0174256 0.022698067 0.034922607 0.019286424 -0.03011593 -0.012611267 0.0614553 -0.02042343 0.06312363 0.08641013 0.077196755 -0.036544602 -0.04315824 0.0086553395 0.037286256 0.047830336 -0.06980699 0.06248784 0.039549924 -0.06929536 0.061395574 0.0124976905 -0.07329478 -0.053358484 -0.031030701 0.055798966 0.058420513 0.08265314 -0.07703568 -0.024009528 0.043825187 0.08085563 -0.0090379715 -0.023365576 0.037786 -0.08226884 -0.0830453 -0.051860392 -0.018067496 -0.023314634 0.009982988 -0.019958584 -0.047654968 -0.053271316 -0.055400115 0.06653658 0.039769575 0.03746164 0.07587746 -0.04458954 -0.038754087 -0.026601143 -0.06729045 -0.05230281 0.0059093214 0.06196532 0.038224105 -0.07390678 -0.005760135 0.030572314 0.029916177 -0.06790483 0.018474814 0.021844165 0.004754155 -0.08134039 0.053755723 0.07891907 0.024579994 0.047445662 -0.060749885 -0.06942105 0.06334938 -0.035765383 0.04344779 -0.03866485 -0.056620702 0.042683065 0.023774207 -0.0079913335 0.015453353 -0.06279993 0.006640193 0.012831343 -0.010805932 0.048566733 -0.085246705 0.07748026 -0.065592885 0.06614013 0.02726164 -0.011669635 -0.008754682 -0.07283757 0.086372286 0.085159704 0.021626594 -0.041485976 0.06891881 0.07183667 -0.014977333 0.04379454 0.05517162 0.042759746 0.036610976 0.057782795 0.05481578 -0.0038108332 -0.056759145 0.042251278 -0.04498535 -0.05252984 -0.019573214 -0.03562917 -0.006381464 -0.023697816 -0.08505668 -0.056701582 0.010526789 0.046837255 -0.06907318 -0.03801567 -0.042271297 0.021694213 0.015932957 0.05071393 0.05566516 0.01054458 -0.0376267 0.08306167 -0.01646629 0.037954077 -0.08412915 0.017682457 -0.028119432 -0.072902896 -0.0709134 0.07964633 -0.07890295 -0.064673655 -0.023503663 0.03361886 -0.08777699 0.06727863 0.06535303 0.044159353 -0.067920275 0.0008562069 0.06626783 0.032761473 0.019146757 -0.022864101 0.010362335 0.053447295 -0.046794675 0.029126655 0.08392601 -0.046778508 0.064810716 -0.052065272 0.055883862 -0.05184787 -0.06902527 -0.0130410055 -0.017776635 -0.032695126 -0.016529214 -0.073100634 -0.042926725 0.055345368 0.012888261 -0.019140767 0.014818376 0.084177636 0.08601699 0.054498497 0.01830023 0.086563595 0.027906341 -0.003402186 0.072640225 0.059039086 0.04758464 -0.017856121 -0.078321144 0.03190794 0.010629954 -0.0372063 -0.024391545 -0.077683456 0.05591579 0.06196434 0.002945574 -0.047966134 0.0659219 0.03155954 0.00024196482 0.06950025 0.07441717 -0.028881434 0.025243776 -0.0129778115 -0.0018239988 -0.08462327 0.08574525 -0.042650923 -0.06756393 0.0455265 0.07674687 -0.065802924 0.030600352 0.053042132 0.05125469 -0.050540727 0.02535486 0.010928222 0.019570965 0.041025914 -0.0031254573 0.028534714 -0.061049514 -0.0025993823 0.07776483 0.0132589415 -0.049414683 -0.063538484 0.037820302 0.046846602 -0.04721781 0.046166018 -0.055785835 -4.717204e-05 0.058409 0.03841622 -0.04244147 -0.06267051 -0.04320092 0.030013654 0.08383143 0.05751627 -0.009654149 -0.077101916 0.036938112 -0.027418926 0.016744811 -0.02431539 0.056357097 0.06438769 0.009421949 -0.06402356 -0.031609576 -0.017836599 0.06650272 0.045239855 0.04711554 -0.07131139 -0.050645217 -0.015514785 -0.009197136 0.017348306 -0.07520209 0.041575935 -0.056144305 0.006944123 -0.03182427 -0.08186156 -0.04726147 0.059424467 -0.0087050125 -0.059440546 -0.04483194 -0.08827989 0.0258819 -0.040556982 0.086938575 0.038429067 0.0822574 0.050826777 0.08560719 0.043236118 0.0070337965 -0.0043736794 0.045975797 0.013293609 0.06555391 -0.05748746 -0.017713342 -0.019158605 -0.05293309 -0.039702628 -0.076157965 0.014375137 -0.01519503 0.020362463 -0.010085587 0.034144912 0.03677378 -0.042546716 -0.042651646 -0.06480074 -0.07133821 0.027080894 0.08627366 -0.045380387 0.043919176 -0.01627527 -0.03215419 0.02657699 0.01124383 -0.046232883 0.08488049 -0.01653632 0.03341288 0.078761674 0.02743378 0.028904049 0.013603368 0.08415773 0.085679956 0.057527903 0.057568114 -0.06365034 -0.07671386 0.0084653 -0.027949402 -0.08410349 0.0776044 0.03327714 -0.06558849 -0.027629077 0.040648468 -0.025155788 -0.06586643 -0.087482765 -0.05582252 -0.03560247 0.06596618 0.018980687 0.06622359 0.0014105163 -0.0438143 -0.032049086 -0.017653525 -0.030078843 0.011204853 -0.06550031 -0.05029801 0.06660071 0.017929839 -0.06043445 0.070510775 -0.056502823 0.044339567 0.058983605 -0.08049049 0.04535835 -0.014375914 0.06370726 -0.07624482 -0.04934238 -0.07966869 0.034694076 0.010293697 0.036325634 -0.021463722 -0.07728487 -0.026464837 -0.01623868 0.006749166 0.030102413 0.049347807 -0.052036133 -0.059249077 0.034600124 -0.03957861 -0.041058652 -0.013052102 0.054774452 0.030022357 0.06258659 -0.0011425423 -0.04214236 0.0010189223 0.07176807 -0.038188513 -0.021844469 -0.011863602 0.026545657 -0.023885962 0.050889954 0.047171894 -0.014628819 0.048046544 -0.04391533 0.075772114 -0.04492488 -0.05436804 0.03079701 -0.046691597 -0.032942392 -0.008466906 -0.08215667 0.008149783 -0.038567178 -0.06671863 0.036680058 0.08574116 -0.025734391 0.073489375 0.050601944 0.010284777 0.067365415 0.080010876 -0.013034615 0.07603732 -0.043047726 -0.0015750765 0.06282608 -0.040436562 0.0017520636 0.004864031 -0.028279629 -0.06080535 -0.059061643 -0.0072794096 0.009238242 0.013754531 0.074996166 -0.048206907 -0.02632531 -0.045775276 0.06442766 -0.077226184 -0.07821544 0.014548383 -0.0010688549 0.021758527 -0.01923162 -0.035788946 -0.008429027 0.011996984 0.01365923 0.07524512 0.019175692 0.026285928 0.05778983 -0.012631769 -0.041405 -0.015284639 -0.051671606 0.055255502 0.075846635 -0.019735286 -0.08144602 -0.05790896 0.082695924 0.009045865 0.06461125 -0.026321568 -0.0318531 0.07842274 0.045616165 -0.04942073 0.07368895 -0.08746328 0.028279915 0.072317824 0.07210662 -0.080034114 -0.071901985 -0.025658488 -0.027625322 0.08559401 -0.0486168 0.073300675 0.019662026 -0.064532354 0.0775577 -0.037712213 -0.044507224 0.06981265 0.07984093 0.032456614 0.017538877 0.05767476 0.0021208134 0.029612578 0.062911585 0.03794023 0.06844198 -0.030947316 -0.03463637 0.035351295 -0.0022876817 0.061733395 0.046903387 -0.014528798 -0.0003298723 -0.0062017846 0.08499545 -0.031555038 0.039820764 -0.038043566 0.004759376 -0.04670681 -0.0174371 0.060646456 -0.065510176 0.05386492 0.0409976 0.047385354 0.04344348 -0.0641987 0.053977232 -0.04117107 0.07686371 -0.010029914 -0.032901693 -0.017214961 -0.08304284 -0.029090984 -0.013672645 -0.0059322757 -0.05079419 -0.028217219 -0.07228927 -0.03737285 0.043141592 0.06734664 -0.027142007 0.014025726 0.032860044 0.013113553 0.043774802 0.033299617 0.033748347 -0.06555951 -0.0355111 0.034795914 -0.0023636606 0.0606408 0.08348019 -0.030925026 -0.016143931 0.057903014 0.00055159396 0.0046978802 0.079954915 0.05661281 -0.0106085185 -0.059091415 0.08766107 0.06587756 0.041674457 0.017187113 -0.055220407 0.013269032 -0.054504335 0.018716013 -0.015971929 0.044453233 0.0011469898 0.05254022 0.012954965 -0.07232965 0.056966886 0.0749868 -0.053346332 -0.011138651 -0.087165564 -0.05992676 0.07546573 -0.051677667 0.07518658 -0.0019698916 -0.07166763 -0.023401594 -0.01829729 0.015840357 0.015515348 0.012092233 -0.075260825 0.050890442 0.016610952 0.03990054 -0.07056885 0.055608343 -0.07957932 -0.03171235 -0.0011448145 0.05007447 -0.0026985325 -0.015160097 -0.008111938 0.049969405 0.053237885 0.012894463 -0.02656466 -0.07887789 -0.066916615 0.040176995 0.06884439 -0.030073162 -0.0021240765 -0.07091883 0.07466631 0.059118826 0.07231728 0.041373894 -0.03113171 0.052811254 0.029188942 -0.01018466 -0.0075447047 0.005305553 0.08493432 0.059179228 0.0022700226 0.0069026607 -0.019796764 0.05137016 -0.06523397 0.015981544 0.085021615 0.013936143 0.02848985 -0.028188068 -0.045829643 0.0013421973 0.0557824 0.08370749 0.002086273 -0.013194257 -0.08734479 -0.040090043 0.052791342 -0.05105172 -0.035177544 -0.054093152 -0.015740436 -0.022250013 0.01900798 0.036161847 -0.06874263 -0.07314481 -0.050224263 -0.032976367 0.01688276 0.00982922 0.05035385 0.062576 -0.008357527 -0.07452997 -0.049447477 -0.07719008 -0.029620534 -0.047286995 -0.025491005 0.012170128 0.028631097 0.0044730757 0.08673436 -0.045205574 0.037107617 0.019165572 0.017117564 0.055217065 0.01993867 -0.048426896 -0.0051668915 -0.06914831 0.035738055 -0.079403214 -0.046652135 -0.08060903 0.06258695 0.078135036 0.021799402 0.016984278 -0.02764475 0.008525444 -0.04584379 -0.08768032 0.007182743 0.006116656 -0.07698206 0.022572393 -0.08343527 -0.053924963 -0.051308174 -0.01700717 -0.010117933 -0.036440723 0.0497265 -0.0573912 -0.04050382 0.007005713 -0.069951124 -0.064219356 0.06577305 0.012819479 -0.039600782 0.081361815 -0.054853644 -0.0038094951 0.0006996483 -0.05973787 -0.05679426 -0.0790505 -0.08598877 0.037159313 -0.011208371 0.009069166 -0.015759453 -0.02527439 -0.0051382943 0.07510662 -0.058621585 0.04979602 0.06276712 0.07872496 -0.029839681 -0.038532052 0.08263728 -0.0021726263 -0.07478256 0.06759759 0.03640951 -0.016392304 0.014503682 -0.078612246 -0.015207813 0.055826068 -0.009824084 0.015844477 -0.08479702 0.008469131 -0.04942082 0.030954879 -0.080425106 0.082123876 0.052865695 -0.03500389 -0.07393597 -0.04575047 -0.049849704 -0.03010457 -0.007939578 0.042182267 -0.04801505 -0.0054054484 0.0854571 -0.07874007 0.06712 -0.013515809 -0.069628306 0.04924812 0.05911639 0.0079269195 -0.05439107 -0.039462626 0.030524176 -0.070855536 -0.0111948205 0.060653325 -0.015882077 -0.0036479386 0.08591759 0.069197886 0.045211185 -0.0751372 0.00787164 0.034644727 -0.036909275 -0.059047267 0.01683051 0.044238035 0.010689634 0.02979415 0.04342178 -0.016401703 0.06301607 0.08084903 0.0064605316 0.0021444082 0.04386003 0.0028219707 -0.078747764 -0.062743194 -0.014525877 0.04617485 0.02777888 0.06101521 0.08311562 0.037656 0.019840041 0.038825043 0.047910634 -0.051540017 -0.025423778 0.070602424 -0.03413737 -0.03654872 0.02498269 -0.04093521 0.083268285 -0.07160762 -0.058814235 -0.037769377 -0.05743599 -0.05955725 0.025021743 0.048101846 0.048520163 0.019770553 -0.056416426 -0.04562419 -0.069331385 0.018192366 -0.023165656 0.0012160098 -0.07220191 0.021301616 -0.001293591 0.061593346 -0.03492145 -0.044596605 0.06891537 0.0019458764 0.039283343 -0.026920842 0.07101431 -0.07183072 -0.033102527 -0.015895173 -0.07573449 -0.0646952 0.04740183 -0.0685903 -0.053028475 -0.06684438 -0.047960985 0.060328294 0.051226117 -0.07852978 -0.046625417 0.012327713 -0.074681446 0.07070588 -0.04693028 -0.035579704 -0.05089423 0.023007765 -0.063758835 -0.034214552 0.031421058 0.026358968 0.047117647 -0.03351115 0.025015151 0.04523284 0.0016430712 -0.010925401 -0.07085969 -0.014782441 -0.02016305 -0.017209113 -0.008320032 -0.025520967 0.025179198 -0.035597425 -0.015282268 -0.0018467145 0.085281074 0.026823293 -0.07230909 0.0044030542 -0.029656924 0.02309938 0.020721441 -0.08056546 0.0034629987 0.074059576 -0.08789556 0.083670825 -0.07366548 -0.052908715 -0.06764803 0.011508189 -0.06606577 0.010107454 0.073526524 -0.026526054 -0.07207341 -0.05682512 0.031451073 0.04555386 -0.027348654 -0.0013159713 -0.05572249 -0.017453745 -0.041379508 -0.06952957 0.074821405 -0.007896 -0.03329158 -0.045268036 -0.034521293 0.0684334 -0.039437212 0.010430348 -0.07110657 0.0061299577 -0.035422876 -0.057628512 -0.027581196 0.03899429 -0.06948859 0.079685315 -0.0036389509 -0.0522451 0.029454969 0.055603247 0.087696284 0.0224434 -0.08168203 0.022670906 0.026564801 -0.017113812 -0.045837477 0.0696324 -0.0376102 0.050945166 -0.039386254 -0.05910525 -0.037137527 -0.08361181 -0.0754828 -0.060088526 -0.04113349 0.05892883 0.059193816 -0.029374087 -0.01821473 0.08798299 0.0072788885 -0.060134243 -0.00036359724 0.07407837 -0.023135522 0.015130696 -0.07999227 -0.022678897 0.01880529 -0.020029742 -0.07491332 0.014926692 -0.0721248 -0.066273704 0.0045993812 0.08706818 0.049409702 -0.06540479 -0.0374593 -0.05273649 0.075867355 0.014284437 -0.06274073 -0.011704564 0.02681113 0.06819872 -0.06713252 0.005641742 0.072982594 -0.039029844 0.0856902 -0.03800029 -0.0211193 -0.039184015 -0.08354422 0.0794819 0.08447783 0.048120774 0.050690737 -0.022347014 0.04665954 -0.003975648 0.05915941 0.086583935 -0.001373846 0.058037687 0.062861875 0.034866363 0.039369673 -0.08451357 -0.050113913 0.042863686 0.07055754 -0.030736024 -0.016077356 0.0008483936 -0.049464427 -0.04868945 0.066056274 0.03843697 0.06625731 -0.05237202 -0.005836772 0.07351306 -0.07072379 -0.048264593 0.00026612577 0.06290856 -0.080397636 -0.010047455 0.06648887 -0.0028110377 0.051420927 0.058695406 -0.061420806 0.04826632 -0.008049633 0.053849168 0.05181685 0.022307528 0.03090894 0.0023096215 0.06381233 -0.08489082 0.040219557 0.00081963657 0.027217502 -0.08472898 -0.082064316 -0.0034443608 0.05031844 0.017184656 0.06828803 0.053817432 0.012318023 -0.01785359 -0.0746401 0.028808562 -0.024168776 0.059018623 -0.05095143 -0.013869096 -0.03896642 -0.0027663896 0.0551057 0.021921014 0.03991379 -0.009658478 0.066152334 0.062048815 0.045365505 -0.046823215 0.0654992 0.037593666 -0.04271584 -0.0737794 -0.08393067 0.060257148 0.052593287 -0.022638492 0.077793136 0.074864514 0.0070518986 -0.070086785 0.00057945546 0.07571232 0.014354616 -0.086807415 0.06966093 -0.029338451 -0.06701936 -0.08084621 0.026466515 0.07312738 0.05074882 -0.019421265 0.013653726 -0.081982926 -0.036151763 -0.059206303 -0.034316946 0.08500172 -0.008737736 -0.0013557132 -0.036631506 -0.06594582 0.038047954 0.040746532 0.019997261 -0.017113449 -0.029110013 -0.020900486 -0.017961666 -0.078551285 0.0010442343 0.01997677 -0.043488696 -0.06337309 0.0647367 -0.04615619 0.0065381 -0.06448902 0.061472613 0.08779023 -0.052337974 -0.032798227 -0.0034420576 -0.024457905 -0.02272051 0.027297506 -0.025334662 -0.052777488 -0.08662861 0.07431053 -0.0024419173 -0.035062514 0.062367257 -0.026228525 0.06689145 -0.035840116 0.0152521115 0.029253177 -0.08496113 0.010437884 0.036037322 0.025449142 -0.03965118 0.01394041 0.07911371 -0.037554327 -0.029233875 0.039945107 0.023663066 0.030343851 0.034404892 0.05278553 0.065488696 -0.07736248 -0.023999227 0.05242096 0.08585751 -0.017296102 -0.012658676 0.07368442 0.037392102 0.027483525 -0.03143382 -0.049939916 -0.06180914 -0.086515866 -0.016728286 0.017794482 0.08724116 -0.012502799 -0.058878716 -0.014833773 -0.04554523 -0.025084587 0.060316868 0.013548918 0.02454325 -0.01580098 -0.06801719 0.06267158 -0.04741314 -0.01692068 0.0669807 0.08387703 -0.033747744 -0.07171419 -0.05811023 -0.029160153 0.07624784 -0.07004259 -0.016115783 -0.05473419 -0.084317364 0.03160826 -0.054240495 0.080007605 -0.03299508 0.0805545 0.014824329 0.0012775195 0.029010637 -0.05278361 0.07865324 -0.061550852 0.036163833 0.051016703 -0.06833283 0.016792253 -0.03942754 0.035030074 0.08079489 0.07453542 -0.03175577 -0.07295653 0.052627515 0.05508886 0.036225695 -0.075447924 0.047521397 -0.06924921 0.08635108 -0.07555535 0.059019268 -0.03437483 0.018234273 -0.050162584 0.050110456 0.08147803 0.025353016 0.03763532 -0.07756894 -0.043872833 0.049674984 0.012414293 -0.07470831 0.022322252 -0.048215263 -0.053485908 0.07653328 0.03833476 -0.07206456 0.04670956 0.010751492 -0.08888065 0.070285946 0.030661708 -0.0037244267 -0.039637215 -0.03164693 -0.038024705 -0.038488764 -0.026580242 -0.05327823 -0.04154551 0.06221539 0.05097888 0.014271788 -0.010746468 -0.07614736 -0.07306145 -0.066366486 -0.08352847 0.02749953 0.009376647 -0.039530303 -0.0047412524 -0.0037000254 0.0022507038 0.081361085 -0.060911708 0.027229223 -0.08482132 0.038688175 0.08617371 0.055529263 0.07611765 -0.026600733 0.08440758 -0.014383042 -0.08319484 0.07446566 -0.07980918 -0.06576815 0.044403907 0.08275884 0.060670666 0.072457135 -0.05018681 -0.08306401 0.031950995 0.024444446 0.018408693 0.05259401 0.061609667 0.0055918884 0.07826443 0.07801674 -0.07851205 -0.07098961 0.037337273 -0.078488946 -0.07313353 0.08502014 0.04285844 0.03940473 0.061370894 -0.043433033 -0.017424813 -0.03572402 0.005593258 -0.014852334 -0.030915666 0.025100661 0.06935365 -0.015340634 0.057202958 0.04804985 -0.01943948 -0.02279004 -0.043739192 -0.01552784 0.004613353 0.03429471 -0.02146989 0.038637895 -0.07336622 0.08573521 -0.07273759 0.00043583123 -0.03936279 -0.057651304 -0.021658031 -0.006518699 -0.054921195 -0.05272095 0.081354946 -0.038109202 0.08234807 0.0059253853 -0.009506217 0.06656201 0.01001849 -0.073867425 0.02055314 -0.045099318 -0.057336703 -0.061667565 0.012731525 -0.07972171 0.029378789 0.008596912 0.025816007 -0.0375884 -0.0001246449 0.066160105 0.0854355 0.0042772624 -0.0071969037 0.068202905 -0.05176269 -0.03200387 -0.03841848 0.039684955 0.076546244 0.056378745 -0.00039310637 -0.02956765 0.041305453 -0.01599646 0.069349706 0.06524972 -0.050281018 0.028004888 0.04579835 0.072884664 -0.08489036 0.08040558 -0.06992369 -0.08840825 -0.01900156 -0.02529034 0.055793077 -0.03263629 0.062449723 -0.04610628 -0.04600724 0.0040982314 0.020659544 0.025669968 0.018844249 0.005617061 -0.062273405 -0.072353624 -0.0060267025 -0.008798249 0.07640049 0.03857217 0.08544721 -0.08584381 0.026998337 -0.079325 0.019800616 -0.018544864 -0.079652466 -0.022157455 0.06439353 0.057185266 -0.04345925 0.016089903 -0.009341311 0.073723935 -0.07168077 0.025771854 -0.055436764 -0.04824087 0.022376323 0.05114824 -0.06646714 -0.052179355 -0.06814529 -0.02863494 0.04990184 -0.026992742 -0.071905114 -0.08594743 -0.068014756 -0.03324908 -0.01590483 0.056127492 0.07436138 0.00031445926 -0.048302256 -0.03173129 -0.08166895 0.025107207 -0.05969154 -0.012699371 -0.0032858741 0.0076131932 -0.021140883 -0.032099947 0.006772364 -0.012986258 -0.036155198 -0.007061603 0.037693523 0.08646762 0.04819794 0.011034011 -0.063588336 0.037465397 0.082429536 -0.08508111 0.06416389 0.025747566 -0.045189977 0.06880845 -0.0058848364 0.0841418 -0.018296847 0.07954442 -0.05671264 0.08282806 -0.08298058 -0.0802009 -0.045075607 -0.0657478 0.024291188 -0.031996522 0.039022595 0.00420411 0.011212582 0.054221563 0.01306731 0.07411433 0.013868847 0.04430215 -0.008006236 0.009587766 -0.037117057 0.026178455 -0.0441033 -0.0333536 0.08448808 0.0048796064 -0.02637433 -0.023675095 0.06664381 0.072625436 0.017630598 0.016162919 -0.088281006 0.030551486 -0.030035453 -0.048918333 0.0058569103 -0.07272812 -0.016265823 -0.06652847 -0.04659829 0.032606505 -0.00457527 0.055439696 0.06774618 -0.081419654 -0.020262284 0.03094285 0.004524645 -0.0869955 0.060845204 -0.052889053 -0.0862956 0.027623441 0.06402748 0.0004348045 0.065446414 -0.078405425 0.056321837 -0.0066747507 0.08010398 0.045509502 0.013168708 0.011741465 0.049912553 0.06554359 -0.047091607 -0.022142345 -0.05967132 -0.02371063 -0.07642554 0.007719967 -0.088880345 0.04893065 0.0010140701 0.050822087 0.072904736 -0.019586189 0.033906005 0.06715022 0.006019944 0.0024092935 -0.0046572015 -0.020692874 0.02779034 -0.04614002 0.015150447 0.035171207 -0.047334313 -0.034414727 0.076915964 0.062080592 0.05400389 0.058704145 0.057974048 -0.07657876 -0.035578385 0.06869744 0.061437253 -0.052965574 0.018604292 0.009529131 -0.07869872 -0.0887854 0.060697995 -0.073233746 -0.0055723893 0.023311565 0.0072284127 -0.05858044 0.07309239 0.06315874 0.066088505 -0.024779962 -0.0019972632 -0.065150626 -0.03143415 -0.070622526 -0.058550708 0.014380662 -0.006675929 0.0019378302 -0.05052808 -0.027464792 -0.07272505 -0.020874204 0.081428416 -0.067743205 0.03517691 -0.02176682 -0.0017529448 -0.054673783 -0.07257432 0.06351279 -0.037712086 -0.050719675 0.05461807 -0.020015905 -0.042373613 0.061075125 0.064682454 -0.030059239 0.03377331 -0.055342678 -0.03774353 -0.039544445 -0.012748005 -0.0068202293 -0.060360905 0.083053075 -0.047026847 0.071519084 -0.012738366 -0.014998677 -0.02457517 0.01832558 0.06399752 0.028986538 -0.047977895 -0.008211523 -0.018102568 -0.00011150604 -0.041728433 -0.08063714 -0.024944114 -0.08289261 -0.038371325 -0.026324697 -0.044066902 -0.0057332846 -0.08181855 0.035716385 0.04044519 0.06114686 -0.059986472 0.007188098 -0.074508056 -0.077992186 0.05749446 0.008805997 0.009009346 -0.07017031 -0.027825007 -0.06241164 -0.055638798 -0.008359802 -0.012224936 0.030390304 0.0025626821 -0.07617867 0.078641824 -0.002415872 -0.076473005 0.079431444 -0.08525904 0.064672515 -0.049986366 -0.06897258 -0.088895515 0.07633255 0.03213542 0.085330464 0.07642156 0.0068557397 -0.003130408 -0.06163217 -0.02187979 0.08135663 0.0864792 0.0014343901 -0.033416335 0.039576568 0.04449797 0.029007673 -0.056153238 0.07333798 -0.062950805 -0.062376305 -0.04039881 0.072145514 0.027698832 -0.03669485 -0.019193958 -0.032410357 -0.057087258 -0.059446182 0.08553679 0.048345447 0.051342536 -0.03865608 -0.0573002 0.073865704 0.010765847 0.07175004 0.0332161 -0.067430876 -0.08143291 -0.02254506 0.048558306 -0.009605019 0.051039096 -0.031833995 -0.05684214 -0.05688584 -0.069588944 -0.06854877 0.03951694 -0.069911696 0.049948417 -0.061347134 -0.039634906 0.04658631 0.05211795 0.0044853725 -0.060828082 -0.07055284 -0.029665606 -0.039513566 -0.058285046 -0.03104711 -0.060454205 0.073131256 0.07283419 0.06746257 -0.061952412 0.08073497 -0.026692344 0.01149899 0.076551296 0.06851664 -0.023753166 -0.040363275 -0.00672981 0.0826181 0.017652377 0.0017992242 -0.045658838 -0.072515205 -0.074807644 0.05720603 0.0063164094 0.025493149 -0.021451293 -0.041056458 -0.036784466 -0.031108916 0.07125827 0.026604477 -0.039420635 0.085193135 -0.01750028 0.08635581 -0.07919587 -0.043817345 0.060039796 -0.051635277 -0.06594017 -0.008016496 -0.084208705 0.08107886 -0.008724651 0.043498535 -0.01149398 -0.08750989 0.00023423541 -0.0370196 0.055736836 -0.07554376 0.017607186 0.027128492 -0.067439966 0.006331005 0.03301088 0.004039419 -0.015093888 0.084570915 -0.064597756 0.02119755 -0.015121993 -0.026647154 0.05364832 0.0015575966 0.0047953106 0.06469049 -0.054545447 0.0056107542 -0.005760594 -0.007081768 0.005256285 -0.065434605 0.010837677 0.08394024 0.03878219 -0.059343465 0.017396448 -0.087349646 0.011063002 -0.058630742 0.051463306 0.034330595 -0.06052104 0.0017146028 -0.085109144 0.0065361294 -0.012571405 -0.073204115 0.0037256053 0.07439646 0.062444933 -0.055711985 -0.012323282 -0.005596144 -0.072247714 0.058438756 -0.042089675 -0.03975933 0.07391365 0.02494543 -0.024818577 -0.072114624 -0.011528135 0.05228875 -0.07846861 0.017491046 0.0073341327 0.08627867 0.016611205 -0.08044154 -0.0889142 -0.08753695 0.040288083 -0.05482298 0.022897936 -0.03923707 0.0030425966 0.078755744 -0.0778501 0.046527706 -0.0027336217 0.05285081 -0.012350236 -0.07152907 1.8089368e-05 0.038273536 -0.012027222 0.061818965 -0.004625417 0.021439617 0.009091547 -0.007721785 0.043711197 -0.021933015 -0.06473859 -0.072237566 -0.08418742 -0.03396073 0.0230417 -0.048218254 -0.0069149784 -0.08026068 0.000881041 0.009897708 0.05413842 -0.00771085 -0.04961512 0.08105408 0.026153285 0.027393216 0.022819275 0.06313589 -0.08673992 0.079170436 -0.08592948 0.06198479 -0.04313912 -0.04530069 -0.010096936 0.06507617 0.00137225 0.030912552 0.0032834592 0.034763936 0.06267459 0.018085903 0.08270714 -0.020998683 -0.028347434 -0.02093807 0.054349586 0.041225016 0.036179427 -0.010574804 -0.07013995 0.014410803 0.061747465 -0.075066775 -0.074231625 0.020840453 -0.07444443 0.0002636008 -0.07882759 0.028925207 -0.02526287 0.009120093 0.07294559 -0.061561387 0.056056965 -0.07902737 -0.07958195 0.01190641 -0.08559141 0.042571962 0.0118979495 -0.022792064 0.06951226 0.034911476 0.06940593 -0.05410967 -0.0018717279 -0.017303703 0.021523906 -0.0037183622 -0.07414057 0.0022238928 0.08036976 -0.035182875 -0.018380828 -0.08311463 0.026168678 0.071722716 -0.052644078 -0.08253699 -0.0226493 0.07807799 -0.058537666 0.017839348 -0.078995235 -0.014039893 0.08457752 0.0075594974 -0.07173084 -0.074908935 0.06329176 -0.07804218 0.033056207 0.028062368 -0.0098986775 0.057066366 0.083804145 0.04837864 -0.02455212 -0.04450442 -0.01129265 0.010800995 0.07328558 0.058045194 0.08493128 0.044697046 -0.02201041 -0.0079910625 0.032121666 -0.010394611 -0.0682271 0.023327561 0.058526237 -0.02288202 0.008158648 0.010972685 0.014832657 -0.0382262 0.08421654 -0.04617955 -0.008170782 0.032202892 -0.05015401 -0.036554117 -0.087997414 0.020856606 -0.0018151546 0.012513478 -0.011597633 -0.0037044866 -0.056968454 -0.03753542 -0.016165309 -0.06536793 0.03553467 0.066112176 0.05494114 0.033593938 -0.076898836 -0.060750898 0.08031125 -0.024922717 -0.047538303 -0.01871683 0.061287206 -0.078191265 0.042967975 -0.043701142 0.034069333 -0.06807308 -0.05311813 -0.017668655 -0.034055844 0.08038014 0.044241086 0.030323053 0.016256891 0.047651824 -0.030170992 -0.06845273 -0.06810477 0.05361715 0.025076365 -0.083089 0.015974652 0.022546658 0.048590444 -0.05230322 0.07611732 -0.029465517 0.03758979 0.07329123 0.07522387 0.042239293 0.07094481 0.06674675 0.058060206 0.059203304 -0.061193768 0.040276997 -0.0052726073 -0.08075489 0.005073455 0.04547284 0.05096003 0.00647372 -0.027558165 -0.08590652 -0.049507067 -0.07396046 -0.044233214 0.06356231 0.05916951 0.058293466 -0.059140693 0.06659022 0.016709203 -0.054064598 -0.017736113 -0.07852524 0.017567778 -0.011561604 -0.06425901 -0.033174507 0.071712956 0.041361164 0.028099319 -0.04615243 -0.022715164 -0.07517751 0.0035033338 -0.016306723 0.07223668 -0.015040929 -0.07214148 -0.018556252 -0.017521538 0.015362914 0.070510186 0.016286498 0.05810917 0.014648397 -0.007167953 -0.028148582 -0.084687136 0.081976995 -0.027250526 -0.07484436 -0.018653514 -0.071877755 0.0462898 -0.0051906146 -0.04432734 0.009011768 -0.06776505 0.07020868 0.053088583 0.016771005 -0.06259523 -0.036238637 -0.05729058 -0.038113352 0.06536727 0.07063441 0.06966725 -0.0144682545 -0.015151597 0.0055669956 0.0716591 0.059783544 0.05142636 0.02478248 -0.029738113 -0.013398413 -0.0074149356 -0.0715894 0.02869224 -0.022458378 0.031273317 -0.034205053 0.07544286 -0.016856402 0.029317705 0.03601728 0.022936825 0.08425153 -0.08121455 0.028058916 -0.0626459 0.013641977 -0.0037521701 -0.05500931 0.028630426 0.01911793 -0.054315194 -0.06156094 -0.0074991775 -0.06351873 0.060151894 -0.014534883 0.009037819 -0.044193756 0.03396068 -0.062559314 -0.06700528 -0.05185271 -0.02984827 -0.0035940227 -0.026123958 0.016131246 -0.025671028 -0.031763874 0.016569868 -0.08918702 -0.03319527 -0.0013142027 0.0077434853 -0.037384357 0.042619776 0.054237083 0.016268421 0.037017044 0.0055945427 -0.05773718 -0.08433609 0.049470328 -0.043078475 0.012560188 -0.03825983 -0.022520928 -0.05679104 0.04784705 -0.01010757 0.054435976 0.045672677 0.0022490164 0.08091283 0.07555897 -0.017892575 -0.069035776 -0.06980789 0.029501932 -0.0026298936 0.06792961 0.08304496 0.00029454613 -0.009369761 0.0062333792 0.046319596 0.043527327 0.015919648 0.043692477 -0.08284358 -0.054058272 -0.005991303 -0.046245705 0.029810295 -0.024036791 0.07057653 0.08218562 -0.017290413 0.05985659 0.049847033 -0.04917321 0.07121512 -0.033059474 0.0542033 0.015183948 -0.03734053 -0.059134565 0.010084461 -0.052478086 -0.0612049 -0.036403388 -0.036498424 0.08137862 -0.019094324 -0.044335954 -0.021402977 0.014301462 -0.02502935 0.004346222 0.041797917 -0.08492876 0.006272153 0.054581456 -0.02889873 0.044119485 -0.040701218 0.007857646 0.06612292 -0.053908214 0.05708396 0.022746777 -0.022831384 0.04384822 -0.08185304 0.042128462 0.07404614 -0.040308822 -0.08257131 0.08677962 -0.08594973 -0.06980053 -0.031958267 0.061833415 -0.0074146073 -0.03539336 -0.076611094 0.0635077 -0.048182853 0.036906432 0.016719637 0.052717578 -0.049169805 -0.005452269 0.026799189 0.072905034 0.07208198 0.01882795 0.0757075 0.013802731 0.07961932 0.0060070534 -0.004688853 0.005533802 -0.06528219 -0.026864836 -0.08195318 0.041385747 0.018001845 0.029915202 -0.0173652 -0.038092732 -0.0576744 -0.051489964 -0.028514778 0.02900358 0.03931735 0.0043865438 0.02601441 0.013611675 0.010943446 0.03799199 -0.08646174 0.042446498 0.08275105 -0.0007296875 -0.083410576 -0.08696866 -0.08296177 -0.03017563 -0.024590192 0.06543607 0.07677809 -0.046442598 0.04907877 -0.059269954 -0.03761365 -0.08032811 -0.026207037 0.0002784877 -0.06070285 -0.0043701013 0.022432443 -0.028393833 -0.034898713 0.011968296 -0.048963122 -0.017983174 0.01160406 0.042151894 -0.06534803 0.05547403 0.024622597 0.03185501 -0.0721088 -0.07501865 0.007548866 0.013312652 -0.015512877 -0.012285945 -0.03854081 0.069265574 -0.04810166 -0.02361246 -0.022276103 0.08156452 0.04406204 0.00016100805 0.08589695 -0.027881535 -0.060713958 0.07598507 -0.007923932 -0.07717724 0.03075581 -0.027378194 -0.029992204 -0.0829336 0.06230025 -0.063756734 -0.028064122 0.04014535 -0.06866506 0.009390085 0.086160764 0.05029019 0.060027756 -0.033058684 0.051544454 0.08342949 0.036126427 0.04176037 -0.00532481 0.063698664 -0.04011955 0.0035637293 -0.08010065 0.04258321 0.007925083 -0.06179385 0.027702298 -0.02242683 0.014849961 0.0049050986 -0.08843384 0.0875835 -0.08106462 0.00015766532 0.018349903 0.0062895142 0.068636216 -0.06446154 -0.06732139 0.008075438 0.078624256 0.017385079 -0.066724695 0.06354198 0.045347016 -0.01906467 0.08143643 -0.043796133 -0.058119535 0.057824604 -0.077449694 -0.06300873 -0.07181328 -0.017635318 -0.055568185 0.00046644793 0.07703507 0.068593785 0.019705227 -0.06931984 0.06336058 -0.061912183 -0.06286434 0.07806662 -0.0810953 0.058602955 0.0515965 0.061853595 -0.0045992834 0.06890531 -0.0012065899 -0.034448173 -0.054450404 -0.082646824 0.004717056 -0.019324023 0.029734557 0.057804387 0.07427364 0.04054799 0.07811754 0.013050571 -0.007157244 0.051202726 0.035094816 -0.021881323 -0.05386353 -0.05543278 0.0025917392 -0.08134619 -0.0119953 0.0052183545 -0.039423168 0.081496775 -0.05590486 -0.016960107 -0.0038089722 0.06804981 0.08174456 -0.048476517 0.064305335 -0.018541602 0.0047379 -0.023836518 -0.08151326 -0.0014615841 0.07206952 -0.07116505 -0.03356114 0.07435031 0.026084945 -0.077530034 -0.055932872 -0.074167036 -0.05515653 0.025352297 -0.03215504 0.086023234 0.031873576 0.05788596 0.00029282493 0.051941577 -0.035260804 0.0007771528 0.05074568 -0.0854475 0.025561124 -0.08599659 -0.033323523 -0.06879404 -0.059562355 -0.06980444 -0.06475379 -0.069469094 0.009391006 -0.0021876036 0.017265791 -0.013984372 0.020338409 0.008066538 0.05043331 0.084005006 -0.07149189 -0.043264274 0.07214388 -0.02372978 0.06817852 0.03395164 0.061834425 -0.027483666 0.03577609 -0.054984953 -0.05557122 -0.027479753 -0.032220233 -0.006678345 -0.007030575 0.06255178 -0.066636495 -0.029167397 0.044778578 -0.0013958343 0.043228645 0.048504576 -0.07090634 -0.07253457 -0.039039448 -0.037935637 0.047735192 0.03031564 -0.019863112 0.028178582 -0.024671739 0.006421609 0.069420144 -0.07266439 -0.00066753896 0.0083937375 0.036249414 0.049901314 0.018534103 0.020501005 0.03471021 -0.046839982 -0.034884177 0.023140851 -0.03377546 0.009465855 0.00059335405 0.08577222 0.0072814627 -0.058240224 0.047520187 0.055741023 0.009313727 -0.0017488458 0.0069918786 -0.057225253 0.07572886 -0.036789294 -0.074519284 0.002466666 0.036960147 -0.028293746 0.021538896 -0.045881644 -0.036131132 -0.0070426944 0.02000824 -0.05891917 -0.0665437 0.0748834 -0.014138697 -0.07810272 -0.013605321 -0.018033609 -0.07290863 -0.03436283 0.0725996 0.029238116 -0.0044061034 0.061410483 -0.070706256 0.020640826 -0.017292866 -0.06447829 -0.021330047 0.08247243 0.037500676 0.06569831 0.0865216 -0.07589433 -0.06748917 0.010637209 0.01973723 -0.043062277 -0.06819253 -0.05472277 0.040888887 -0.057998378 0.056805674 -0.04477604 0.073620774 0.03384026 -0.08533835 0.03232994 -0.07307046 -0.023343695 0.066130884 -0.08872901 -0.009433332 0.021817965 0.013831974 -0.042400043 0.053980727 -0.00888649 -0.07835111 0.08691702 -0.008903233 0.047020942 0.05688392 0.007632047 -0.013466971 -0.08816861 0.015676348 -0.08716785 -0.050061207 0.048764344 -0.08000093 -0.055649795 0.050692063 -0.04596726 -0.013507833 0.079329304 0.07059184 -0.072692595 -0.070093766 -0.05199024 -0.07039802 -0.007996503 0.026345327 -0.074987166 -0.0849931 0.010786587 -0.08762276 0.040681746 -0.07191275 -0.058817245 0.05164894 -0.033707824 0.08152893 -0.082994506 -0.057006102 -0.0036658363 0.08637216 -0.049668625 -0.05314417 0.034680173 0.06529469 0.066374436 0.07324523 0.08577799 0.04255108 -0.049206633 0.010492076 0.083759315 -0.03786222 -0.038807407 -0.044971086 0.024701517 0.0019498344 -0.015604809 0.008092832 -0.02359559 -0.061035458 0.013427731 0.08591689 0.040949397 -0.02407025 -0.06864559 -0.042990193 0.03752637 -0.06311271 -0.044971306 -0.08533883 0.02240612 -0.060450856 -0.06333401 0.037805196 0.0071817487 0.03527813 -0.020884646 0.025621016 -0.054955777 -0.042565532 0.0382087 -0.019724617 0.08391113 -0.07774912 0.014606483 -0.081614204 0.0649809 0.07426147 -0.03074742 0.04761726 -0.04628305 -0.069622 0.0074790567 -0.008680326 0.04748486 0.050701227 0.06978108 -0.068647996 -0.033666044 -0.004214223 0.026551902 0.04252679 -0.06549269 -0.049325455 0.040179264 0.019372791 0.009223482 -0.016801583 0.06541748 -0.052868865 0.046594568 0.085083984 0.07918824 0.03510299 0.015583965 -0.025595289 -0.009519182 -0.077407576 -0.04602016 0.011631671 0.008431675 -0.07227933 -0.07892714 0.009210367 0.051710762 -0.053775743 0.012910593 -0.046938416 0.01852033 -0.03745501 0.024413373 0.030582847 0.086023055 0.0722649 -0.056097403 0.08322448 0.03918257 -0.026349302 0.03441062 0.07925229 -0.015182561 0.066878244 0.08084852 -0.055793494 -0.027126836 -0.058548223 0.060019113 0.06999813 -0.07240061 -0.011011501 -0.057427354 0.0748765 0.008386522 -0.05183546 -0.07713972 0.021493685 0.03814248 -0.022396877 -0.055332217 0.0450589 0.032501813 -0.048051666 -0.013065407 -0.00813965 0.077673234 0.050593 0.016252894 0.037837878 0.06617964 0.058782183 0.07674964 -0.05239279 0.077501416 0.0057350993 -0.048360176 -0.0042896285 -0.0199749 -0.046686463 -0.005198898 0.009609569 0.08296802 0.015433392 0.04819843 0.015977222 -0.011168671 0.044066302 0.060669538 -0.07218927 -0.0116595905 0.03360843 -0.07899192 0.040394288 0.054272477 -0.033694305 0.030678548 0.035187498 0.0054337485 -0.028529955 -0.043940373 0.043863844 0.01013203 0.048267595 0.039690953 0.08175591 0.050045144 -0.05939608 -0.0695153 -0.00026245267 0.00436708 0.023291513 -0.074299745 0.029638106 0.010860051 0.0681479 0.03174611 -0.06634209 0.0819511 0.029250002 0.07270894 0.0032802704 0.06194262 0.043125764 0.012990973 0.03729349 -0.007760699 0.05710007 -0.048796292 -0.041992016 0.0019275255 -0.026022993 0.06277239 0.039873745 -0.061015952 -0.06759626 -0.07398696 0.07364562 0.060662076 -0.06144892 -0.06465918 -0.0689411 0.07380077 -0.020016108 -0.082385406 0.04647039 0.019381832 0.030003363 -0.07685748 -0.055493068 -0.053798616 0.044588238 -0.082667306 -0.015529316 -0.023014119 0.074096896 0.03556972 -0.06418135 0.011862696 -0.08700616 -0.06407337 0.024543263 -0.0285385 0.06424213 -0.052371003 0.047375362 -0.03736143 -0.057218436 0.053566985 -0.062973306 0.03130775 -0.044370543 -0.06559711 -0.07135714 0.06270338 -0.074303634 0.036460306 0.08192151 -0.024398264 -0.050484706 -0.043668497 -0.08174662 0.014509051 -0.010671715 -0.058501627 -0.04553081 0.038905833 -0.046357002 0.010031196 -0.044647004 0.06431306 0.02958476 0.008920648 0.026721064 -0.06541724 0.01392493 -0.05837575 0.02618289 -0.061679356 0.028139148 -0.0068780193 0.071531795 0.0046550045 -0.08845254 0.034595437 0.062413808 0.02593902 -0.076292224 -0.047981393 -0.07611575 -0.0128858145 -0.008597916 0.07411407 -0.01683158 0.046920314 -0.03850452 -0.026387714 0.06470902 0.034985635 0.033811573 -0.0344716 -0.030663764 0.07965276 0.07940047 -0.061918102 -0.0040784664 -0.030068465 -0.088720486 -0.06389781 -0.0045455378 -0.010417925 0.04732752 0.027873648 -0.013836637 -0.07967661 -0.0754089 -0.04302367 -0.005815583 0.0048008184 0.079456516 0.038895935 0.044787195 -0.07108825 -0.05049983 -0.018989222 -0.077895924 0.0788607 0.034682892 0.03323064 -0.04512924 0.05465344 -0.026548047 -0.06374983 -0.074517466 0.085269734 0.027025685 -0.047042303 -0.07608242 0.04830721 0.04544777 -0.0035787642 -0.029625615 0.0138902655 -0.084211506 -0.08358411 0.04526468 0.07252838 0.056636196 -0.03208492 -0.06437967 -0.00084917765 0.025696164 0.05036439 -0.040204685 -0.07888727 0.006644535 -0.017822323 -0.0076359385 -0.0677072 -0.068838775 0.029832141 0.06646341 -0.05999756 -0.0051088077 -0.044440914 0.06850841 0.05391596 -0.020883955 0.074743755 -0.048276782 -0.019979166 0.0044602943 0.027827922 0.040400818 -0.03608023 -0.025349956 0.02761835 0.0704386 0.040766507 -0.039470185 0.009550517 0.06281247 -0.073083796 -0.0035119127 -0.06337637 0.0044537727 0.043131877 0.020942789 -0.028815864 0.07232592 0.030534212 -0.04409104 0.0769734 -0.00639883 -0.029344674 0.05882273 -0.006815079 -0.083426446 -0.08487466 0.066848844 -0.008725142 -0.033557992 0.012157019 -0.031889956 -0.057518847 0.0068944874 0.081596695 0.08262605 -0.046663273 -0.012768144 0.07550459 0.029466894 -0.053463858 -0.023638966 -0.006428455 -0.007061442 0.038110822 -0.026529478 -0.056436732 -0.07384049 -0.06368833 0.041045096 0.014875589 -0.075994715 -0.06187498 -0.062559105 0.030539911 0.025609428 0.010267452 0.031906 0.0029780124 0.020355565 0.0066393143 0.059317876 -0.07327431 0.0055619017 -0.027227297 -0.015029324 0.018910369 -0.082175314 0.049500022 5.9383033e-06 -0.008084351 0.0137473345 0.01980693 -0.006586224 -0.072900735 -0.022590093 0.054031067 -0.08482746 -0.0833809 0.024745846 0.035812132 0.07846722 -0.06811031 -0.0584249 0.032726258 0.009488325 -0.012971723 -0.077499054 0.0102949 0.0010484608 0.046727214 0.06416063 0.007416317 0.050083503 0.06397953 -0.045502163 -0.029821621 -0.008532374 0.029057212 -0.0742031 -0.0040388093 0.033466093 -0.08493857 0.020824417 0.05647057 0.051385388 0.014404091 0.050062623 0.01699361 -0.07402008 -0.026265703 -0.071233384 -0.013239412 -0.0747896 0.080902316 0.03826301 -0.018008443 0.0068734093 0.055621695 -0.031383596 0.08124025 -0.03391394 -0.05777991 -0.014069681 -0.023615992 0.04486071 0.07735373 0.06938756 0.08019272 -0.07721003 0.04961951 0.04280961 0.049788136 0.07558951 0.07634839 -0.035539262 0.055473126 -0.023548275 0.009347785 0.030727342 -0.05848939 0.008407685 -0.026740925 -0.0018994914 0.055707984 0.004866775 0.08259724 -0.04759307 -0.084961325 0.025353117 -0.06576008 0.08587923 -0.043090068 -0.07706445 -0.012515139 -0.021194255 0.03693674 -0.042873777 0.033035625 -0.056781888 0.0080885235 -0.039766386 -0.07180143 -0.046316724 -0.0144226 -0.033452448 0.07076653 -0.07301181 -0.06612893 -0.019857625 -0.022131339 -0.05230736 0.04474516 -0.027618196 0.053770695 -0.032751396 0.05912912 -0.079826936 -0.059337895 0.06783934 -0.043675695 -0.06323007 0.04387274 0.017592872 0.06373787 0.082630254 0.079923 0.045520436 -0.075278625 -0.07020992 -0.013905806 0.0034708672 -0.03491568 -0.074175455 0.020060401 0.012637533 0.033742324 -1.6574113e-05 0.010339561 0.08471041 -0.041246332 0.058874268 -0.049869876 -0.04456515 -0.016137622 0.008315935 -0.06610632 -0.05488928 0.03129635 -0.03557113 -0.017879592 0.014498814 -0.007180717 -0.035455216 -0.08746511 -0.04516419 -0.07085853 0.052920178 -0.08257506 -0.08648831 -0.08244179 -0.022976639 0.050567098 -0.060073473 -0.03875237 0.016379982 0.038509652 -0.07728726 0.059840716 -0.040154826 0.03855035 0.013803465 -0.08154948 -0.034470804 0.07879498 -0.060386054 0.074351415 0.031166526 0.03255209 -0.016443074 -0.04731261 0.037397776 -0.032020774 -0.039269116 0.06986853 0.038667064 -0.039214063 0.052173607 -0.0019816963 0.048030596 0.043795675 0.028006358 -0.046161056 -0.08191619 0.06054502 0.08051816 -0.06394091 0.014765522 0.060632005 0.08477979 -0.050808214 0.04420969 -0.041939754 -0.0081740115 -0.048713606 0.029987711 0.02526257 0.07778761 0.07048017 -0.06682904 -0.025124134 -0.05109247 -0.02178768 -0.05306202 -0.048575066 0.050883576 -0.058545314 0.08233026 0.032859236 -0.075859115 -0.036438353 0.039300524 0.021280525 0.015818259 0.053017028 0.050171603 0.002272677 -0.057476897 0.060559392 0.017149642 -0.065632194 -0.089008495 0.04356184 -0.07377484 -0.014806084 0.053380538 0.03399481 -0.03817768 0.07931325 0.083983645 -0.015739575 0.05879234 0.053976923 0.010517529 0.07391148 0.012623191 -0.056447137 -0.009332777 -0.03526903 -0.04016633 0.07716282 0.023436371 0.073459424 -0.07151393 0.018219605 -0.055020154 -0.0046311286 -0.028725639 0.06923985 -0.058995906 -0.08055108 -0.036921613 0.06942421 -0.02966856 -0.08272725 -0.07900481 -0.042554095 0.019174127 -0.009031956 -0.03137768 -0.015791612 0.053921357 0.06236912 0.073026545 -0.057267707 0.008300913 -0.08828259 -0.027518675 -0.043458294 0.050878312 0.044817947 -0.046270557 -0.065966204 -0.025853546 0.07774231 -0.06592242 0.041401062 -0.085709155 0.010776566 0.054461766 -0.0003827489 0.022469029 -0.050593756 0.0611268 -0.030300615 0.06481711 0.0020473208 -0.043229375 -0.03887369 -0.07364429 0.026544958 -0.020627052 -0.081107214 0.0500894 0.08472343 -0.05933404 -0.056267478 0.00437159 0.06968516 0.0762901 -0.021701446 -0.01627835 0.025431985 0.06401286 0.028424967 0.08273076 -0.0790795 0.0500017 0.069700815 0.07140293 -0.048428375 -0.040084936 -0.0025550013 0.04189839 -0.04001547 -0.010618599 0.024073768 0.01609926 -0.08653637 0.06766965 0.028147774 0.017694527 -0.07980047 0.019067934 0.028720416 -0.06004149 0.045647994 0.04509284 0.063270256 -0.064388745 -0.08114331 -0.064110845 0.026233725 0.061812896 0.07752205 -0.08322061 -0.033054005 -0.04996891 -0.0331504 -0.007065032 -0.023318898 -0.013264866 0.067619674 -0.08761149 -0.0040744217 0.009573033 0.0122669665 -0.029891748 -0.0641311 -0.06703221 -0.08344488 0.0136280535 -0.07988541 -0.041435286 -0.032667674 -0.07746991 0.0021298982 0.028693723 -0.025192836 -0.004165149 0.06720521 0.023261594 -0.041256472 0.0066440897 0.042725075 -0.061551474 -0.0040039765 -0.042940166 0.024167938 0.02020849 -0.047248624 0.027064148 -0.029190592 0.03335075 0.03596143 0.026197096 0.020405434 0.030668937 0.086038284 0.073764436 -0.06944672 0.07380934 -0.027516428 0.0131113725 0.08244345 0.028269034 0.026095271 0.010078595 0.049171727 0.004833933 0.010255111 0.078541435 0.08453545 -0.08748455 -0.05305206 -0.070599526 -0.016286757 -0.007153453 -0.0744261 -0.07259045 -0.051149152 0.08389505 0.033565007 -0.07711608 -0.014671945 0.051525496 0.009943067 -0.010647493 0.006971997 0.0007975801 0.024783414 -0.06947329 0.043053538 -0.0069900495 0.075426385 0.014939992 0.020986345 0.0719449 0.06314823 -0.07402453 0.051864658 0.061497144 -0.08355973 -0.022140106 0.043521795 -0.08302269 -0.077516235 -0.015278706 0.055199992 0.017744273 0.00802514 -0.020282567 0.06433717 0.08640973 0.07301227 0.029937692 0.048857972 0.032744665 -0.037939113 -0.021150574 -0.08365912 -0.0779445 0.077583455 0.021627676 0.05942509 -0.085369006 -0.009441619 0.021722073 -0.028766096 -0.020845652 0.07986856 0.06706737 -0.052901637 -0.050296966 0.042069357 -0.012060086 -0.050393432 -0.07820068 -0.0136838965 0.06265331 0.0348384 0.026925199 -0.07503539 0.032310527 -0.08252008 0.045932453 0.033861216 -0.003180639 0.044965006 0.0106657 -0.082550645 0.06867065 -0.0724468 0.019347087 -0.04110208 -0.0835131 -0.031980127 -0.026155014 -0.047996815 -0.06990713 0.06575916 -0.02441344 -0.056332402 -0.028168233 -0.003987995 0.010239628 0.001713226 -0.04995559 -0.041268446 -0.06476286 -0.02441351 -0.065540686 0.038571976 0.0717024 -0.008936046 -0.0708716 -0.07083389 0.015600925 -0.01715297 0.017604146 -0.06536993 -0.075812295 -0.008631724 0.06665055 -0.06602238 0.058954947 0.030625265 -0.04403149 -0.012623301 -0.017615372 0.035628814 0.0865005 0.02064419 -0.00094369485 -0.019196628 -0.08539094 -0.07192203 0.024263544 -0.086435676 0.0034747834 -0.08559475 -0.029655844 0.0614141 -0.04845448 0.023819033 -0.04619339 0.057223935 0.039704554 0.06845963 0.07617962 -0.07008035 -0.05844675 0.02947311 0.083045915 -0.026021404 0.038878005 0.04252222 0.016515689 -0.03368163 0.03511155 0.08632513 0.02064684 -0.016046787 -0.08870391 0.03040377 -0.05439775 0.027208297 0.027708815 -0.0004792851 0.083824836 0.0626377 -0.08329026 0.0861089 0.061584577 -0.029798703 0.01787 0.004955443 -0.08295509 -0.030642353 0.015379865 -0.023917885 0.08399219 0.060574997 -0.08817322 -0.07695484 -0.07946606 -0.08795111 -0.076949336 0.08017792 0.006436757 0.026033998 0.059370525 -0.088866174 -0.079648055 0.03075373 -0.028794676 0.04464616 0.0037855988 -0.01700484 -0.035383765 0.001430653 0.03542493 0.02328056 0.02599522 0.075338274 -0.01983712 -0.026230367 0.05187862 -0.06966029 -0.040871788 -0.046919577 -0.002105261 0.018660797 0.08240104 -0.044933833 0.08187152 -0.0090578105 0.038657177 0.061405066 0.0144644175 0.020371985 0.064690374 -0.035192486 -0.033419568 -0.05939348 -0.037648268 0.063013 0.054555863 0.015120767 0.07488344 -0.06523773 -0.08464589 -5.1222803e-05 0.014311108 0.07976042 0.05764227 -0.053903934 -0.044204216 -0.02440921 -0.024538998 -0.08723064 -0.055777367 0.06565373 -0.0066810576 -0.019321345 0.08570864 0.018981569 -0.08913827 0.01209301 -0.069179565 0.057958286 -0.019930983 0.021061156 0.054885976 -0.05551214 0.080150895 -0.08097807 0.041711744 -0.028852792 0.013448989 0.037758555 -0.018878033 0.058580473 -0.02766055 0.040884297 0.087155454 -0.013184636 0.043598562 0.081368424 0.011452753 -0.06144097 -0.06971598 -0.009107204 -0.024309961 -0.011840378 -0.073060416 -0.05285593 -0.06346246 0.03400696 0.06007759 -0.08450028 -0.08829228 0.025671206 0.06979075 -0.008629991 0.036952246 0.025801713 0.017449249 -0.043189906 0.038678262 0.014896017 -0.044878677 -0.05311021 0.058691368 0.016989172 -0.050299432 0.067998424 0.008505814 0.028809119 0.06878402 0.019437237 0.069004945 0.06368956 -0.056868162 -0.06146236 -0.031904675 0.07170712 0.034765147 -0.039577495 0.0658703 0.0027599789 -0.005736635 0.06318727 0.022641456 -0.04317721 0.07283017 -0.07631983 -0.049451333 -0.06671339 0.021517087 -0.076060064 0.017336303 0.012511745 0.037409637 -0.022650752 -0.04421537 -0.08040117 0.050866585 -0.08513471 0.02162937 -0.001775861 -0.05571867 -0.037729107 -0.0013681094 -0.06384481 0.0012276695 0.013141732 0.067787156 -0.048019562 0.020821761 -0.07340497 -0.0072954223 -0.03444115 -0.032099273 -0.058057714 -0.065370105 0.020798968 -0.07053722 -0.03288232 9.5976786e-05 0.012349718 0.07785557 0.061226387 0.0149629675 0.07783475 -0.04994805 0.054180495 -0.06090186 -0.036315467 -0.07875814 -0.04714027 0.021810625 -0.024689622 -0.05635017 0.05355681 -0.0078851 0.050082978 0.027934337 -0.033391103 0.015415192 -0.023654422 -0.019205233 -0.03306696 0.06886264 -0.048604716 -0.049505863 0.02868685 -0.078712024 0.010417898 0.0021598316 0.07085286 -0.047183726 0.030590408 -0.08796074 0.016287772 -0.031661376 0.078812994 0.064250305 0.08497399 -0.018382851 0.026221644 0.060947154 -0.061223235 -0.037920434 0.059456524 -0.0018821295 -0.07707947 -0.06271425 -0.0198242 0.045693066 -0.063904285 0.0050894488 -0.032061934 -0.030792711 0.039198916 0.0075332266 -0.07084018 0.0722774 -0.026884051 -0.069421165 -0.020388752 -0.010664796 0.029953923 -0.04293465 -0.08327076 0.020195976 -0.062234502 -0.07006288 -0.020311804 -0.05390429 -0.02449353 -0.06773884 -0.055074446 0.048474472 -0.06672435 -0.016770778 -0.0850075 0.04784955 0.08487058 0.043925624 0.016003272 -0.008947921 -0.016050465 -0.07907956 -0.03311615 0.050352346 -0.014988647 -0.025845993 -0.012234058 0.027449118 -0.041289423 -0.04812042 0.066320255 -0.07432459 -0.05201925 0.052258335 -0.056778647 0.016109342 0.012380817 0.06979451 0.018605942 -0.020280013 0.019054368 0.05008261 -0.08629062 -0.041552905 -0.06421397 0.014199447 0.009351291 0.05441436 -0.038158875 0.023957182 -0.039057426 0.031725653 0.076520495 -0.034959894 0.027787285 0.004907272 0.056084417 0.014256946 0.006668436 0.031154357 -0.06483628 -0.044479195 0.08434707 -0.0012810854 0.06757863 0.040175386 -0.051803593 0.082868114 -0.013997878 -0.04083425 -0.022842616 -0.029703967 0.05451117 -0.052943412 0.02039781 -0.07414837 -0.07324793 0.01394573 -0.08914308 0.042006135 0.031646285 -0.00012280249 0.064767726 0.08452528 0.051773015 -0.017211055 0.07116141 0.060721595 0.021592721 0.055270214 -0.07994493 0.08723937 0.014650826 0.06180486 -0.08169725 -0.032116536 -0.02660883 -0.06719458 0.08820902 -0.080201335 -0.058101594 -0.029158056 -0.007250181 0.014062204 -0.08687329 -0.010949015 -0.0129106315 -0.06940812 -0.06324397 -0.05787057 -0.05946033 0.058539413 0.020866996 0.07732792 -0.0868426 0.027992466 0.081168994 -0.035635196 -0.003009468 0.05970871 0.050394475 -0.056272537 0.013216056 -0.067170575 0.061668415 -0.025877735 0.013730882 0.024765225 -0.02376882 0.06756382 0.02555467 0.04128576 -0.01475401 0.0656125 -0.0051068277 0.03971379 0.041242223 -0.020596 -0.055307385 -0.026186947 0.06600727 -0.0861121 0.05623185 -0.010737908 0.069345996 0.035323452 -0.08400509 0.05491466 0.0013409405 -0.0696893 -0.045992274 0.064959385 0.05044008 0.06463417 -0.04101265 -0.076716796 0.060045194 0.010089557 0.07964647 0.03788082 -0.031638052 -0.041561857 0.03766753 0.06692858 -0.0875475 -0.05983233 0.055641737 0.04576515 0.0648652 -0.08589106 -0.06329094 0.08257534 0.07286332 0.04883296 -0.008788933 0.015815632 0.07236684 -0.042271335 -0.036164712 0.058672562 0.024208648 0.023351083 0.043443736 0.063590206 -0.055230934 -0.060405675 0.059372507 -0.033172507 0.052838635 -0.039625052 -0.062541135 -0.04054266 0.0752147 0.048437763 0.08006162 -0.030126223 0.017832395 -0.07203435 -0.056905467 -0.08751903 -0.014420384 0.0862865 0.020890694 0.08367251 -0.053489067 -0.050812736 -0.018556098 -0.04159067 0.0051950323 0.07083467 -0.0737339 -0.045973413 -0.03387412 -0.0595448 -0.06634708 0.008967272 -0.0012644442 0.042270374 0.06334889 0.024783457 0.08289712 0.059064094 -0.025706228 0.055018965 0.04322268 0.06601223 0.028120352 -0.0017336324 0.06831454 0.0850451 0.06028103 0.068560705 0.065690145 0.06310119 -0.03251157 -0.06335868 -0.06916877 -0.057011146 -0.041121062 -0.06792592 -0.0071778246 0.056490656 -0.042332333 -0.06102699 0.018184206 0.06247223 0.07984452 0.043905616 0.01266761 0.059428524 -0.0116989305 -0.026832618 -0.01015951 -0.013881169 -0.0058813114 -0.006849384 -0.032359682 -0.037226893 0.0074851457 0.07271949 0.022666523 0.05537442 -0.033719435 -0.022735907 -0.0065172003 -0.030362785 0.057680774 0.013697838 -0.08125227 -0.07670677 0.0037098655 -0.011053702 0.030135568 -0.03301517 -0.007642634 0.06300978 -0.05860438 0.07787383 0.014768053 -0.027315052 0.07556888 0.041024238 -0.032950275 -0.024381114 -0.01146236 0.015731197 0.03891765 -0.07109006 -0.0023357375 -0.056902524 0.052889403 0.017625324 -0.025499232 -0.06998712 0.081234485 0.00058960455 0.050597057 -0.047135334 -0.07077475 -0.05894484 -0.051918205 0.04502181 -0.083888635 -0.057961367 -0.025649665 -0.037912585 0.07131737 0.05200212 0.010292254 0.028717164 -0.012437908 0.015962029 -0.07521561 0.069492474 -0.00596884 -0.058278006 0.0092316335 -0.044111576 0.036239255 -0.061515175 0.007702212 0.0444928 0.06314477 -0.022397086 -0.07009567 0.040249076 0.0293847 0.023056634 -0.065761745 -0.046001878 -0.041880324 0.072100826 0.0832686 -0.05701792 0.03035546 -0.019150995 0.06474611 -0.017341238 0.009716832 0.044616736 -0.01962085 0.02388391 -0.08716445 0.0007116831 -0.06359306 -0.0636657 0.038815815 0.02453058 -0.08174798 -0.06424889 0.043417767 -0.027415922 0.060428694 0.038158137 -0.0324663 0.06196885 -0.05831026 