0.16540082 -0.104724854 0.14909239 -0.056196153 0.18151076 0.04359955 0.052341852 0.19185579 -0.120358326 0.06847631 0.0019210295 -0.0854808 -0.07975452 -0.11611546 0.108106785 0.1544254 -0.14145367 -0.072813496 0.09432591 -0.056602314 -0.017310783 0.11206184 -0.083258055 -0.13332663 -0.10527155 0.0765361 0.035773717 -0.08736731 -0.17553376 -0.084580414 -0.09496926 0.14225943 -0.024264049 0.0027899123 -0.09622885 0.075486705 0.04891462 -0.07885448 -0.19000416 -0.1368657 -0.15770625 -0.12752856 -0.096388474 0.06155515 0.16081649 -0.13268015 0.122542486 -0.08164712 -0.01776681 -0.02661702 -0.14911161 0.15346129 -0.08207204 0.060704272 -0.10314147 -0.089248076 0.15643366 0.06479543 -0.098717995 -0.040078048 -0.06333855 0.17556375 -0.16608562 0.0011394555 0.090664804 0.15160197 -0.12902208 -0.17481333 0.14281555 0.17185362 0.012606879 -0.0680465 -0.004497171 0.15661842 -0.08988369 -0.12063554 0.16497272 -0.15418722 -0.1315622 -0.128369 0.0448615 0.07963441 -0.010104768 -0.10394094 0.17872666 0.1440167 -0.112465926 -0.078963354 -0.031974237 -0.14165182 -0.044692315 -0.08508022 0.16941665 0.002387633 -0.16279846 -0.18735072 0.13381623 0.10989515 0.079701476 0.07243033 0.065713085 -0.1433303 -0.008352808 0.15959026 0.05791545 0.13653977 0.09856184 0.17005375 0.07707271 0.026366632 -0.037854556 0.14302963 -0.18450412 0.039657395 0.16031885 -0.10794392 0.06510477 0.0027473476 0.11010511 0.10578394 -0.1717653 0.096739136 0.080721706 -0.13458177 0.17179002 0.13883127 0.04694896 -0.12780206 0.034002446 -0.16897954 -0.08728053 0.11780668 0.14933074 0.032575257 0.016181344 0.053452343 0.066480264 -0.09048787 -0.10388232 0.16187645 0.11803104 -0.0923736 -0.13035221 -0.057189412 0.108437724 -0.15727796 0.10493927 0.04544081 0.1537873 -0.100397214 0.10275731 0.18186316 0.08881558 0.09744702 -0.15950707 0.068485245 0.061500445 0.09452601 -0.15503444 -0.13270085 -0.1767971 -0.18091229 0.105158396 -0.16274603 0.048567012 0.09110951 0.075502485 0.011020015 0.08019315 -0.065571636 -0.16710821 0.18799144 -0.18754962 0.046849925 -0.017289435 -0.08547091 0.040083677 -0.098658554 -0.020646868 0.09338667 -0.12778383 -0.010693541 0.057226334 -0.100635156 0.12263862 -0.15943004 0.18725096 0.023521172 0.17502478 0.034502134 0.05537554 0.085279405 0.0070779035 -0.065674946 -0.06563499 0.010446644 -0.047726195 0.022840535 -0.13498537 -0.022699114 0.00633595 0.09249069 -0.16541658 0.021760559 0.08002453 -0.06180609 0.1909381 0.030917766 -0.18171804 0.11431453 -0.05066918 -0.07840958 -0.07320146 0.10452306 0.17599832 -0.14883755 -0.0824708 0.0016457972 -0.025090007 0.06426408 -0.0804059 0.08076062 -0.107126914 0.11336781 -0.07196299 -0.010077347 -0.112802014 -0.14730489 0.04631526 -0.12477843 0.03043737 -0.05125312 0.10345233 0.14204076 -0.13809295 -0.07765561 0.0004268018 -0.0049577947 0.05538291 -0.12868863 0.013508017 0.1011587 -0.1233458 0.012195417 0.0926659 0.16523239 0.166123 -0.09370492 -0.16665925 -0.11463481 0.049707714 0.14352456 -0.07879088 0.07064344 -0.10405847 -0.11214333 -0.021768251 0.14532378 0.10301245 0.018585421 -0.056576155 -0.10832209 -0.05955348 -0.004309769 -0.065806516 0.11609996 -0.108304374 0.0032271154 0.009464784 0.0969297 -0.08638823 0.10177749 -0.026683573 0.004363658 0.14990953 0.08805121 0.18447919 -0.06888163 -0.07558875 -0.16405629 -0.08394812 -0.1911073 0.044254147 -0.13439266 -0.11645788 -0.069553055 -0.037693497 0.18397164 -0.03191678 -0.074453436 0.01933649 -0.10176463 0.043174926 -0.037067685 -0.18478486 0.13530064 0.058706123 -0.040830936 -0.04463724 -0.03474355 0.0033101086 0.16094095 0.11560457 0.0076999613 -0.020296395 -0.04669767 -0.091357596 -0.14695857 0.1717959 -0.032707028 0.122215286 -0.07775809 -0.1848651 -0.17506433 0.012258021 -0.027885173 -0.19010876 0.10410695 -0.12774639 0.06348092 -0.13040502 -0.04872614 0.17259766 0.1610554 -0.18595994 -0.13630524 -0.1718722 0.04038406 -0.015461202 -0.153201 0.13900663 -0.10552003 -0.11100094 0.10498441 -0.018157983 0.04526541 0.15621074 0.13732933 0.17537634 0.12813918 0.15288527 -0.13444106 0.11051403 -0.053038213 0.037310302 -0.14827873 0.14106932 0.027245117 0.044390135 0.09064895 0.17992434 0.13047345 0.053589508 0.10514966 -0.14427897 -0.15344104 0.09239561 -0.16985343 -0.14957596 0.108795166 -0.045758463 -0.10832626 0.13967694 0.08865727 0.19133523 -0.1527159 -0.066539675 0.053939838 0.16496305 -0.085719235 0.106069654 -0.16040467 0.10813213 -0.07198506 -0.037422404 -0.12140669 0.030223621 -0.126841 -0.052221462 -0.16261597 -0.093529105 -0.041908503 0.019568382 0.13714077 -0.15305339 0.15789376 -0.10396476 -0.11832071 0.041381553 -0.17972134 0.00816057 -0.093476936 0.14662452 -0.04858123 -0.02148656 0.15315513 -0.017574923 -0.12953821 0.0066277315 -0.16245724 -0.09742691 -0.07144765 0.032685425 0.12712304 -0.057035662 -0.0101037575 0.18162857 -0.13876751 0.084072106 -0.010224485 -0.04353897 -0.06913198 0.1273612 0.06710322 0.106079996 0.0017658687 0.107884526 0.12801409 0.07839698 0.016513776 0.07202861 -0.15761895 0.043130524 0.1540535 -0.07606918 -0.1125964 0.16972755 -0.1703873 -0.19079654 0.06962239 0.106059946 -0.026247444 -0.14206111 -0.050058763 -0.15465574 -0.08409026 -0.18656467 -0.18795717 -0.040265664 -0.060870014 0.053419203 -0.1396849 -0.13296898 -0.062219866 0.17834826 -0.047908712 0.11557657 -0.039805748 0.11765136 -0.12773962 -0.021966869 -0.17932318 -0.15237445 -0.12819587 0.18201864 -0.010574498 0.18232507 -0.0081762625 -0.10972219 0.08313756 -0.15746067 -0.15750857 -0.18859681 -0.017791666 0.06938033 0.010951329 -0.13050796 -0.077604204 -0.09177831 0.15518655 0.09002691 0.101866595 -0.079613194 -0.16871282 -0.14608073 -0.078392394 0.0017568278 0.12879841 -0.02352056 0.18177813 -0.04514247 0.06641983 0.19028684 0.049602963 -0.18048458 0.17971553 0.09665746 0.09297582 0.08363682 0.00612731 0.17936489 0.047855735 0.12401385 -0.085217446 -0.09873957 -0.00259257 -0.11524977 0.08434626 0.15998732 0.1595092 0.022183845 0.11462188 -0.17095076 -0.023531463 -0.08963431 -0.15476428 -0.0938801 -0.12765613 0.120581135 0.04815938 -0.01966381 -0.16910782 -0.034200385 -0.0357937 0.070500836 -0.16665922 -0.14725146 0.1331737 -0.12560263 -0.1726417 0.0840148 0.10311186 -0.01822585 -0.04680962 0.09743705 0.028367557 -0.05791928 -0.18783422 -0.0601508 0.16346651 0.025133178 -0.12114764 0.040951896 0.118592076 0.17321569 -0.11400486 0.052471764 0.177465 0.063538246 0.038060352 -0.073066406 0.11303985 0.036916014 -0.030371703 0.045667835 -0.09508766 0.1022149 0.01696004 -0.17138511 -0.08979613 -0.14366996 0.081044465 0.06404836 -0.116556756 -0.15574177 0.020886438 0.013009207 0.0865166 -0.053040557 -0.14813204 0.19108374 0.14684379 -0.016162897 -0.10562202 0.1825249 0.10240003 0.17355964 0.112987205 -0.014602318 0.18329772 -0.07374316 0.14349155 -0.17822605 0.10238132 -0.11829947 -0.04272487 0.045963213 0.11581921 0.119292304 0.14774972 -0.10818321 -0.01825955 -0.15308261 0.015119282 0.18814377 -0.18037786 0.14345841 0.017765084 -0.05956448 0.03674642 -0.0092032505 -0.0655681 0.05787172 0.16273876 0.028480887 -0.07946292 0.09605835 0.15399836 -0.089730635 -0.10035887 -0.11256529 0.02340141 -0.18405287 -0.039704196 0.15239772 -0.03717525 -0.1527022 0.10666403 0.1722973 0.1302451 0.05306228 0.12796855 0.020175656 0.08344944 -0.039303817 -0.103203095 -0.083994955 0.15303153 0.0738501 0.07482921 0.013038243 0.15924287 -0.18002857 -0.16749838 0.17510845 0.118921064 0.02803164 0.15945502 -0.18132997 -0.06839129 -0.18362686 -0.1703862 -0.049629994 -0.008007563 0.13743503 -0.0040014843 -0.0025436918 0.06013459 0.14405957 0.10426779 0.18753181 0.15088381 -0.0768549 -0.13637988 0.14783151 0.060399503 -0.06421486 -0.1424943 -0.13368212 0.010029591 -0.049115974 0.0030642215 0.11328861 -0.16930598 -0.18358861 0.026734948 -0.033383284 0.080249265 -0.085459866 -0.09631519 0.056100506 -0.19071423 0.15112032 0.12891112 0.08631832 0.16763508 0.10124061 -0.047120243 -0.17532936 0.16177456 -0.06648162 -0.067682154 0.058204975 0.16191998 -0.015337084 -0.17204282 0.09096667 0.11173247 -0.021385351 -0.10481911 0.12714483 0.18466304 -0.12956096 0.04896245 -0.08406862 0.17924073 0.12741777 -0.16139808 -0.12555458 -0.076286115 0.17922333 -0.18486595 0.021721343 -0.12098027 -0.107706465 -0.10508007 -0.023957469 0.09238709 -0.10374642 0.009848481 -0.03638876 -0.085215464 0.09799472 0.028488286 -0.07741464 0.022902012 -0.12829977 0.17671685 0.021606972 -0.15976189 -0.0038995603 -0.061402995 0.18026291 0.110850185 0.14760022 0.008827603 -0.05742497 -0.15132175 0.14122829 -0.117819585 0.027502608 -0.089779444 0.06407149 -0.17531796 0.13205174 -0.0437274 -0.13081814 -0.12112402 -0.1331759 -0.19189177 0.074413925 0.022170296 0.10709455 0.041612573 -0.08819644 -0.09948563 -0.058293376 -0.03968247 0.16502395 -0.19109225 0.0065565985 0.12134689 -0.029167524 0.044177495 0.14938624 0.09980707 -0.09839604 0.17760986 0.02677224 0.10097554 -0.18978569 0.012257538 0.10442815 -0.046007194 -0.14686061 -0.14649028 0.014879581 -0.063167594 -0.10790937 0.16534805 0.19125359 0.0044441377 0.047739744 0.058004644 -0.0010486438 0.06744943 0.06036874 -0.08445155 -0.19101761 0.146471 -0.047560163 -0.1886285 -0.1788625 -0.192156 -0.03626662 -0.016665868 -0.135742 -0.1574635 0.020810714 0.10288434 0.0121108545 -0.14443102 -0.108037576 0.1107956 -0.17514414 -0.09296552 0.13511853 -0.09658075 -0.06422144 -0.16238058 0.15674655 -0.03263285 0.074051864 -0.041735206 -0.18984179 -0.02439209 -0.06066237 -0.18806684 -0.059404068 -0.0037884086 0.051623926 0.17792656 0.047226693 0.1208581 0.13288291 0.14803335 -0.06153537 0.04660397 -0.08959688 0.17045853 0.09924992 -0.120413624 0.08759712 0.15588364 0.12724186 -0.11364976 0.10088224 -0.18904737 0.043985724 0.09500508 0.074528 -0.06764441 -0.009590525 0.13565324 0.016627833 -0.0011840304 0.045038477 -0.086029105 0.15380462 0.116708696 -0.17348674 0.053532116 -0.055615507 -0.056588266 0.17074592 0.069912866 0.015476845 0.1217168 -0.085184865 -0.013030817 0.032569323 -0.006960509 0.017804658 0.011763021 -0.055584345 -0.10187619 0.13971816 -0.046807397 -0.12559605 -0.1052702 -0.15492122 -0.07666171 0.028855335 0.1773399 0.1473859 0.031429537 0.11575392 0.03424361 0.14354138 -0.06461399 -0.1730783 -0.12613769 -0.031397276 0.08067759 -0.032263547 -0.147353 -0.09793111 0.1407538 -0.104613 -0.12357099 -0.08140556 -0.039751492 0.083517075 0.16044144 0.05750189 -0.19100702 0.18197377 -0.09351779 -0.097894944 0.048085365 0.088987336 0.11779785 -0.07614679 0.08457486 -0.17546938 0.029541709 0.040684085 0.07858712 -0.11881713 0.14946471 -0.14746888 0.10451794 -0.022789601 0.039956562 -0.107813254 0.14445366 0.10868338 0.13389044 0.0882284 -0.06602321 -0.076802194 -0.055035662 -0.07213 0.11766974 0.10398316 -0.06525547 -0.1679894 -0.047693133 0.18334404 0.12971956 0.11293914 -0.061170146 -0.16641329 -0.061797105 -0.020908704 0.15230705 -0.18087855 -0.051129967 0.06887894 -0.15533587 -0.057272222 0.08822826 -0.16147706 -0.1642384 -0.09441664 0.108567074 -0.0039043527 0.109314986 0.16277032 0.17791346 -0.04905882 0.103850365 -0.14947154 0.1019492 0.17324205 -0.12918706 0.0077301967 0.031969722 -0.12913348 0.012142559 -0.18051101 0.11009332 0.08097139 0.14576416 -0.1583509 0.14589569 0.10033127 0.11608766 0.08909803 0.17919286 -0.17451677 -0.08227986 0.12839651 0.06625289 -0.15510203 -0.09308796 -0.05745596 -0.024661245 0.054049578 -0.09618925 0.012516536 0.020543845 -0.011052593 0.09336262 -0.04803206 0.026318617 0.17589235 0.13275662 -0.18546905 0.02886362 0.07763023 0.06947519 -0.12809953 -0.14260902 -0.16302066 0.12147169 0.015021751 -0.115013584 -0.13443373 0.17578362 0.12889408 -0.052519254 0.16163018 0.07223663 -0.006446718 0.08312619 -0.17337471 0.016889889 -0.012377772 -0.0324661 -0.09100216 -0.06561412 -0.06664839 0.05267204 0.0010407998 -0.16945301 0.08888483 0.018736878 -0.15307553 0.14175296 0.17550007 0.016221495 -0.18483353 -0.06937702 -0.057945777 -0.087362945 0.07394617 0.15262921 -0.01567902 -0.1563791 0.092751436 0.10003434 0.026957143 0.122036256 -0.08823437 -0.15512314 -0.055571448 -0.05963676 0.044535305 0.06304541 -0.09485123 -0.15782845 0.0041283243 -0.05113489 0.1897544 -0.026312781 -0.12654528 -0.1614717 -0.02218553 0.09783859 -0.17674844 0.16882052 0.09505 -0.15781344 0.06693882 -0.12841944 0.15349127 0.00022362295 0.03620032 0.02956718 -0.14503096 0.117456 0.05504766 0.14039756 0.18070069 -0.117444955 0.13460435 0.018473191 -0.121029116 0.07687812 0.18888804 -0.09949929 0.13531719 -0.092956565 0.18924688 -0.038828522 -0.11657842 -0.1023377 -0.047216237 -0.053868905 0.14779204 -0.18414736 -0.097701564 -0.14621788 0.06687478 0.15750003 0.084629565 0.0126451785 0.13974085 -0.15222883 -0.077820204 -0.06205131 -0.051452834 -0.107460424 -0.1681978 -0.12628035 -0.17616716 0.11117555 0.049765654 -0.06364941 0.18225457 0.13677892 0.1487746 -0.18730476 -0.041425794 0.03510473 -0.15313502 -0.06750412 -0.0930296 0.12814167 -0.0017211094 -0.04889059 -0.13939454 0.18081681 -0.14916396 0.15641546 -0.12630782 -0.094970845 -0.040003713 -0.02694942 -0.1573597 -0.08658539 0.17950647 0.12729679 -0.04179793 -0.075628474 0.14032444 -0.067213945 0.06375309 -0.0747916 -0.10400771 -0.14110525 -0.11472459 0.12257388 -0.06707999 0.015149281 -0.0071042753 0.094940305 -0.16136189 0.10856569 -0.033479646 -0.13693832 -0.028636798 -0.14719552 -0.178421 -0.027897809 0.009381732 0.07602661 -0.019297203 -0.18074949 -0.17863905 0.18908747 -0.06355444 0.033533964 -0.06983183 -0.088478185 0.18758105 -0.18333448 -0.14261113 -0.17029162 -0.14575133 -0.040486306 0.08542645 0.14538853 0.11271469 -0.1408593 0.00929456 0.12321253 -0.1656892 -0.15560953 -0.027570587 0.11788837 0.11520706 -0.012791688 -0.068333566 0.16467671 0.078438535 -0.10508249 -0.037585374 -0.16792154 0.103545204 -0.08260241 0.09921463 0.10584349 -0.15945198 0.11065233 0.13308935 -0.017817207 0.009250112 0.17067187 0.13722898 0.10245574 -0.09404863 0.032651417 -0.04706781 0.061170008 0.02956611 -0.08528978 -0.14592594 -0.13912243 0.01731038 -0.02472537 0.08246014 -0.12241421 -0.056581225 0.17193419 0.12673303 -0.12240397 -0.14199314 -0.032690328 -0.064240165 -0.042292576 0.08339024 0.04889442 0.16874379 0.07376391 -0.14976819 -0.080186754 -0.12985657 -0.10214051 -0.0064649154 0.18396579 -0.05741905 -0.11724744 0.012240198 0.050120723 -0.09737826 -0.14764003 0.1805411 -0.10943243 -0.0072942893 -0.035522506 0.09443794 -0.08922824 -0.16804612 -0.11307373 0.082765326 -0.076443315 0.03418791 0.06169547 0.16624087 0.13355632 -0.0352432 -0.18435913 0.022343582 -0.18232301 -0.11325295 -0.045657225 0.103075095 -0.15097933 0.07780673 -0.16390525 -0.17546143 -0.12027876 -0.023021728 0.16872892 0.16285045 0.10474654 -0.10258031 0.055437874 0.17675494 -0.13290042 -0.08704129 -0.1258794 -0.13119009 -0.09590925 -0.17017832 0.045028534 0.037812803 0.087889016 -0.052498054 -0.06363255 -0.1419871 0.14724629 -0.078673504 -0.17632544 -0.14219797 -0.12332187 -0.11782905 0.0033216432 -0.025014054 0.07676415 0.12593144 -0.07345245 0.17865731 -0.10924535 -0.09201333 -0.1349468 0.15531585 -0.18601793 0.16885774 0.122053124 -0.1918494 0.0072657196 -0.122138165 0.18656307 0.06583693 -0.1349979 0.00035257929 -0.06707901 -0.098725386 0.1219708 -0.007423678 -0.018487936 0.1525327 -0.0883506 -0.12335184 0.037619386 0.09919006 -0.06871192 0.0009562981 -0.08456261 0.15925948 -0.0069312034 0.13112879 -0.11593896 -0.03801373 0.1266289 -0.035151895 -0.09213057 0.040754057 0.052114826 0.10816979 0.003998812 -0.093937226 -0.08406178 -0.039118547 0.04108984 0.1919451 -0.123068735 -0.056680687 -0.11645931 0.12015568 -0.06717188 -0.045344945 -0.18965192 0.014243524 0.11340156 -0.136934 0.044154555 0.11096888 0.17198531 0.19162561 -0.08639064 -0.055621725 0.049392633 -0.05856331 0.106420815 0.06811363 0.061818294 -0.16860552 0.17824315 -0.030878082 0.1044738 -0.15547067 -0.13996607 -0.05775792 0.04463205 -0.18009873 -0.11225937 0.09388464 0.075601645 0.025481967 -0.06371371 -0.089382246 -0.069132194 -0.10559908 -0.11899758 0.06164496 0.03703459 -0.022723312 0.025053361 0.06763901 -0.07477891 0.15278125 -0.011220568 0.13036436 -0.005348237 -0.003575725 0.0006455301 0.16580537 -0.0011352062 -0.05701485 0.1751141 0.01145804 0.18389641 0.16945536 0.057747398 -0.07730628 0.1682039 -0.011718071 0.09538791 -0.17131652 0.12769815 -0.060583897 -0.16879234 -0.1079982 0.027661119 -0.155066 0.16706677 -0.1102857 0.17650872 -0.10875693 0.15316588 0.18866937 -0.12747855 -0.05358874 -0.14664426 -0.008557196 -0.1454668 0.009303383 -0.07153615 0.14208971 -0.07418121 0.015164087 -0.11030569 0.122653835 0.119248316 0.097249016 0.073067926 0.07610487 0.064257175 -0.1860967 0.108463146 -0.15614112 0.012460389 0.11343672 -0.104272574 -0.1205192 -0.16077308 -0.053906653 -0.02579637 -0.06057644 -0.12614694 0.08188341 -0.053607974 0.08954852 0.1419265 -0.09489004 0.1449503 -0.0038245083 -0.04439004 0.08599586 0.17097162 -0.008818632 -0.017572587 0.18101935 -0.031161692 0.09055158 -0.10281265 0.10168106 -0.016395034 -0.16042982 0.14773086 -0.032336526 -0.014688914 -0.011371031 -0.19258474 0.14580418 0.15243864 0.015941285 -0.19044861 0.031521287 0.18970117 -0.03063403 0.17652744 -0.02022403 -0.1672551 -0.17140995 0.15565838 0.12523331 0.11948669 -0.17710811 -0.10100089 -0.11032134 0.041453622 -0.08731397 -0.1330245 0.15096085 -0.0034921404 0.015724784 -0.14238258 0.12321139 0.06312297 -0.14379933 -0.19171265 0.093684934 0.033265937 -0.050213568 0.1616137 0.06250471 -0.106780596 -0.044845954 0.12778644 0.10125214 0.079863966 -0.089695364 -0.11212866 0.17505933 -0.04414521 0.03747149 -0.12356971 0.15015486 -0.08340227 0.117113836 -0.11712728 -0.17756382 0.05772305 -0.16198073 0.06429918 -0.0030182723 0.10309247 -0.116643004 0.19062401 0.15260728 -0.0035139988 -0.0075199893 -0.14432494 0.16279683 0.047361486 0.049723167 -0.095321395 -0.090464614 -0.16670607 -0.18216202 -0.15531988 -0.01945345 0.18327545 -0.022941777 -0.16215526 0.04472265 -0.06983953 0.11857899 0.11570576 0.18064167 0.014084283 0.18244533 -0.08862512 -0.0654484 -0.103907846 -0.17490919 0.081893995 -0.16608691 -0.045486733 -0.04205605 0.04986319 -0.14276649 -0.020023618 0.064830035 -0.007441971 -0.012342776 -0.09072687 -0.09963821 -0.10981665 -0.052268393 -0.03354761 0.08116347 -0.050730634 0.016964702 -0.092169024 -0.12397192 0.07369894 0.067157626 -0.094841145 -0.165582 -0.08280201 0.026343549 0.13469523 0.06330629 -0.17634454 -0.05636415 0.1348823 0.07537971 0.12495982 -0.16745313 -0.1470216 -0.112461224 0.119054705 0.036679614 0.10099898 -0.15480654 0.1336849 0.1861378 0.10605344 0.13603972 -0.027235972 -0.07931231 -0.15425524 -0.023445804 -0.057352208 0.094772615 0.14719528 -0.14639586 0.14751253 0.009112539 -0.013027895 -0.0040040696 -0.073151834 0.0516221 0.037491307 -0.15172836 0.16531622 0.13603212 0.060727786 0.008833096 0.1009723 -0.115279816 0.024876393 0.10528182 0.077152796 -0.0714598 -0.1412405 0.18214014 -0.18164235 -0.11866485 0.14505987 0.16169389 0.088555984 0.066082545 0.067416996 -0.03119523 0.0920745 -0.069586754 -0.1796731 0.094937004 0.006721529 -0.14786357 0.10577416 -0.09161596 -0.143603 0.07736136 -0.09141584 -0.13775907 0.1165011 -0.08378446 -0.11973138 0.17153266 0.036499806 0.039728146 -0.07382107 -0.1246822 0.02865486 -0.13715938 -0.08761185 0.094798096 -0.04993533 -0.11737361 -0.18403739 0.17937012 -0.054517712 0.11400363 -0.13913445 0.13261941 0.13091943 -0.09002558 -0.17655157 -0.1564789 0.07076517 0.059089273 -0.14312 -0.090765566 -0.12221814 -0.004630638 -0.002043485 0.0005310023 -0.066686206 -0.18222156 -0.17597206 -0.1916396 -0.14968531 0.16483241 0.0604663 0.018986393 0.17284738 -0.076282196 -0.029779641 -0.15262353 0.09394496 0.18754373 0.12595204 -0.02461646 -0.12487088 0.14387038 0.17776616 -0.1618158 -0.1727382 0.06852541 0.11822523 0.0017470069 0.17280102 -0.066125914 -0.1437852 0.04096528 0.17856602 -0.09175378 0.038394768 0.11674202 -0.08232478 0.08239635 -0.16937663 0.08714594 0.13492638 -0.142155 -0.030687982 0.009817592 -0.03193941 0.036587786 0.17586446 -0.18656518 -0.1635571 0.07455083 0.1458034 0.115266375 0.027001625 0.027656913 -0.13907388 -0.08331895 0.1429717 0.07199161 -0.08274738 -0.0009424707 0.00084080646 0.15469258 -0.11345417 0.0048528593 0.18621564 0.17150466 -0.059530396 0.16792494 0.15703695 -0.0068416637 -0.13414313 0.07986498 -0.15457663 0.06919235 -0.090989426 0.13390157 -0.013565656 0.04082849 -0.19057165 0.1197825 0.107572675 0.10741929 0.0701705 0.013220319 0.1680145 -0.101010665 -0.15415293 0.16168998 0.14281262 0.14362006 0.038972165 -0.07452519 -0.10482597 -0.024628628 -0.17076987 0.028487751 -0.054371502 -0.19078511 -0.13004582 -0.02913882 0.15674219 0.16537763 -0.050240364 0.04453321 -0.18039215 0.09800124 -0.12081709 -0.022368893 -0.062706485 0.082820304 0.035836764 0.059590816 0.11608741 0.17364737 -0.09150439 -0.1018289 0.13513343 0.059309103 0.042369075 -0.19090478 -0.07012901 0.01990718 0.014058726 0.05848532 -0.035385847 0.03570902 -0.016976835 -0.14202432 -0.14738044 -0.034868073 -0.04852995 0.18165977 -0.18808971 0.13643593 -0.057620786 0.15689155 -0.008459704 -0.16835919 -0.14473289 0.05819867 -0.09942028 -0.1659638 0.041820906 0.08402391 -0.047585964 0.08425667 0.1400929 -0.15546297 -0.16557205 -0.13500512 -0.14466725 0.17565295 -0.14621902 -0.1780317 0.13481039 0.07003978 0.05882404 -0.08070669 0.06962829 -0.02440181 0.16255867 -0.110516176 0.08555023 0.0948621 0.079849325 0.09110638 0.008359491 -0.110081054 -0.00912316 -0.013883596 -0.021772336 0.016319921 0.010724759 0.04405811 -0.0018488028 0.10044725 0.13182072 -0.12381406 -0.12783979 -0.14262722 0.07633534 0.1744559 0.15603723 -0.026316164 -0.0102718435 0.10646241 -0.056692526 0.16638136 0.07530539 -0.16647246 0.045174323 -0.032112274 -0.06345764 -0.044726275 0.15478738 -0.071413554 -0.13154185 -0.010930411 0.055752918 -0.0051542786 -0.1411695 0.07288484 0.13902962 -0.14063552 -0.100424215 0.16902643 0.061877526 0.02229869 -0.059413623 -0.09968824 0.116409615 0.16440143 0.017652148 0.18382604 0.027832039 0.047509465 -0.17581517 0.0040232623 0.1469471 -0.18893014 -0.12739621 -0.0221302 0.09028721 0.17526184 -0.014321227 0.053380515 0.009824166 0.1660234 -0.01595699 -0.18728976 0.07593793 0.00369925 0.18425113 0.0017312231 0.08216925 0.00022560637 0.16243105 -0.077058986 -0.14872003 -0.042380072 0.19005631 -0.10997922 -0.16160019 -0.18310255 -0.10861517 0.009838197 -0.12629692 -0.1108448 0.002477748 0.044073652 0.10100558 0.050991576 -0.079653025 0.18503027 0.1875012 0.06120472 0.04060264 0.12751715 0.104701884 0.18658637 -0.0995815 0.1468546 0.07031179 -0.15341592 -0.14956106 0.12857702 -0.052141428 -0.17370026 0.16906631 -0.0935915 -0.026971076 -0.16958532 0.0014509163 0.13693568 -0.03562865 0.18236086 -0.13463692 -0.096306436 -0.09751573 -0.13054274 -0.073710166 -0.17096947 0.14287212 0.117955774 -0.12608977 -0.15751947 -0.17657463 -0.14260863 0.042805303 0.17617895 0.11123893 -0.08306777 0.08483976 0.08229619 0.039386123 0.061771385 0.1466346 -0.19190851 -0.1829432 0.14361157 -0.04588214 0.13176352 -0.04200799 -0.19152652 -0.005169168 0.0049975207 -0.010982007 -0.029100245 0.16356328 -0.1471067 -0.14887668 -0.13188069 0.08954678 0.0517859 0.030518305 0.002894916 -0.0072290064 0.028346602 -0.100856185 0.12686078 0.02651747 -0.056820102 -0.119637094 -0.056871735 0.10100799 -0.16949284 -0.034319166 -0.037032634 0.16769364 0.04409462 -0.022882178 0.16587715 0.18705973 -0.09427678 -0.01500924 -0.14329937 0.13325705 -0.1613166 0.064985365 -0.12051437 -0.040661693 -0.13801159 0.024926577 -0.16502585 -0.122021295 -0.032630183 0.1359298 -0.085507326 -0.046096507 -0.112469144 0.019707734 0.0060466127 -0.061665934 -0.1412639 -0.12057126 -0.11971126 -0.14597756 0.18901452 0.061941776 -0.001159955 -0.12856089 0.0064525576 -0.12947175 0.11672627 0.0763775 -0.18764678 -0.14882964 -0.10481271 0.12746866 -0.12444888 0.0821433 -0.16911061 -0.07364792 8.693733e-05 0.14353126 -0.0035776796 -0.07697667 -0.13686518 0.099657394 0.10032106 0.07161049 0.008988754 -0.13483661 -0.039239984 -0.11757713 0.14167543 0.033110548 -0.1212134 0.16519007 0.001511929 0.18624602 0.1667072 0.09440349 -0.13640903 -0.1342086 0.06659065 0.05661939 0.036839653 -0.19037491 0.1435917 -0.068267986 0.022680096 0.046455696 0.0880346 -0.007783708 -0.14912349 -0.10375394 -0.055060938 0.023260677 -0.14426816 -0.02806487 0.08839409 -0.18132658 -0.026580425 0.12693688 0.07211484 -0.0671418 0.013743036 -0.15372707 -0.031989377 -0.12986867 -0.12873107 -0.124518745 -0.1354457 0.07449417 -0.12922752 -0.08592419 0.11502813 0.08700578 0.0915674 0.010426329 0.11229796 0.015571466 0.060785476 0.0008191313 -0.18843672 -0.16644342 0.099513605 -0.18833686 0.08346844 -0.13662061 0.10113124 -0.11463804 -0.060173128 0.039487846 -0.16694567 0.07622885 0.030878332 0.17101298 0.07227849 -0.0659434 -0.118530855 -0.05211228 0.13016295 0.1414678 -0.032606196 -0.0056500295 0.022580918 -0.16159642 -0.085247315 0.16560617 0.04826033 0.032223582 0.114468805 -0.06032365 -0.11009762 0.0049842657 -0.010521867 -0.09160616 -0.01869144 0.18509534 0.13369071 0.16809006 -0.15361142 -0.13819072 -0.09305658 -0.066256486 -0.09784052 0.034469824 -0.18698254 0.013811633 -0.17619607 -0.11014582 -0.121265 -0.0605743 -0.03448262 -0.0339218 0.043450184 0.011853382 0.016363671 -0.16836913 -0.018383307 -0.058112066 0.08385538 -0.12045816 -0.06811767 -0.011126503 0.1602602 -0.18745366 -0.036349624 0.0127635235 0.0747134 -0.19136278 0.039692905 0.17631288 -0.13568307 -0.067019925 -0.06949437 -0.0017859373 0.12001411 -0.05438375 -0.1077716 0.15436529 0.17637566 0.18231764 -0.13039984 0.13514084 0.09327071 -0.036534917 -0.1416467 0.026056254 -0.09479121 0.010079534 0.027836584 -0.12455222 -0.112654425 0.14794865 0.055693667 -0.18421184 -0.049795154 0.09683684 -0.1666202 0.002886338 0.103882 -0.0077638566 -0.11498889 0.029507175 0.026134904 -0.1005208 0.15349393 -0.05555048 -0.09357111 0.13148835 0.028365681 -0.15212658 0.10691412 -0.02367297 -0.10976611 0.005877408 0.17845017 -0.03756058 0.13967466 -0.0989435 -0.1336903 0.027573723 0.07662614 0.05586651 0.012277982 0.020427926 0.106299505 0.083370976 0.0625415 0.0020153017 -0.10061427 -0.06757588 -0.09106586 0.12936382 -0.029274894 -0.1801018 -0.1422235 0.045005698 0.18746324 -0.038881075 0.09974311 -0.16638869 0.17203891 0.17854975 -0.04693789 -0.008552216 0.041797057 0.14532045 -0.017463565 0.14684565 -0.13877892 0.16071628 -0.16936204 0.13910942 0.1910948 -0.090666056 -0.14450642 0.09091371 -0.17879833 0.16980343 -0.05958648 0.0724181 0.029333083 -0.1189297 -0.19047184 0.033205036 -0.17763369 0.11616443 0.09951934 -0.12935138 0.021611113 0.052476164 0.10032927 -0.09188067 0.16740626 0.14208315 0.08869559 0.17293735 -0.1297724 -0.037060473 0.12591425 -0.044536207 0.1447099 -0.14134195 -0.1198789 -0.122005805 -0.06145398 -0.010631554 0.113147974 0.17678924 -0.14862497 -0.05562432 0.060890716 -0.04125499 0.060935102 0.09275536 0.063973226 0.17293487 0.15836883 0.02385336 0.09283668 0.13572823 -0.06616864 -0.07804269 0.02720336 0.12584868 -0.10496064 -0.045852058 0.18103547 -0.039112415 -0.17517944 -0.060686707 -0.051682144 0.17244287 -0.11746199 0.009143534 -0.01774539 -0.093573466 0.061435822 -0.0016175249 0.10581048 0.11736223 -0.14749809 -0.12036864 0.008448525 0.13010995 0.042380504 -0.16736637 0.0065582525 0.14923365 0.072881825 -0.002383585 0.04092188 -0.019680155 0.13624375 -0.11864543 -0.12304148 -0.053235397 -0.18624334 -0.06481944 0.039214753 -0.18358551 -0.06489573 0.15971029 0.097431295 0.10341675 0.10224454 0.06249458 -0.057482652 -0.046010606 0.079285026 -0.0514274 0.09605039 0.13543689 0.063882396 0.02825921 0.0924322 -0.15347782 0.025699427 -0.13456254 -0.11320205 -0.10518458 0.077362165 -0.12946129 -0.07629136 -0.1830697 -0.060087867 -0.14575343 -0.0033091265 0.13522282 -0.045773458 0.025620967 0.13024358 0.061349045 -0.051072314 0.15982518 0.09999865 0.01437403 0.027646525 -0.17591643 0.06724641 0.01659417 0.105354086 0.10169664 -0.06986964 0.18270658 -0.118906245 0.1791438 0.047677495 -0.11280142 -0.014150608 -0.17583182 0.13625498 -0.18692902 -0.16155258 0.16615139 0.005270436 0.106612615 -0.18069676 0.1507773 -0.051909685 -0.15646522 -0.09807673 -0.1134775 0.17510541 0.07092931 0.06213021 -0.06999517 0.16799125 -0.012449004 0.1601631 -0.1209298 -0.04117496 -0.15584545 -0.14002402 -0.19182654 -0.079679124 -0.18895683 0.17808203 0.15260385 0.0066531934 -0.10761297 -0.05330875 -0.11785236 -0.030220466 -0.0030411447 -0.09221487 -0.060739603 -0.14951248 0.020870218 -0.025143212 0.006214989 0.07468597 0.10653088 -0.14446244 -0.12568179 0.015566896 0.075325444 -0.09026444 0.1468732 0.12706405 0.16601022 -0.09113903 0.009297435 0.082871415 -0.056054506 0.03582943 0.025097162 -0.023880826 0.13844167 0.123105355 0.050639313 0.07581217 0.08056219 0.1333545 0.1734248 -0.105968244 0.024781337 -0.04597863 0.19199257 -0.15140809 -0.110174395 -0.18098393 0.12855197 -0.13656208 -0.12850018 -0.103390835 0.06580802 -0.15433541 -0.1491478 0.02056107 0.093376234 0.12198189 -0.08206551 -0.022811968 -0.03820139 0.14043337 0.15436763 -0.16440219 0.088394076 -0.106908955 -0.14554098 -0.18009183 -0.00084332575 -0.012196608 0.040335823 0.050038684 -0.11631681 0.021064665 0.07304815 0.10739356 0.02634122 0.18192483 0.025667755 0.18266548 0.050279867 0.18838182 -0.15177657 -0.05005061 0.034117714 0.118609905 0.1134432 0.14278202 0.037653103 0.064307034 -0.06442368 0.18525499 -0.103445 -0.111657545 -0.15719399 -0.06697815 -0.024792746 0.11176133 -0.12299311 -0.16204944 -0.13335502 -0.16298592 0.10384652 0.03779592 -0.14433555 0.1876096 0.021047926 0.01845093 -0.13967796 -0.13925464 0.042927437 0.010722746 -0.07589271 -0.024022177 -0.039329164 -0.036694635 -0.061934773 0.03721607 -0.15856515 -0.073087946 -0.14532511 -0.0453401 0.0019724462 0.14845541 0.009817512 -0.19085833 -0.1558481 0.07989935 0.122871935 -0.190379 -0.10121155 0.16818948 -0.09142159 0.053550664 -0.1818965 -0.044440318 0.07465077 -0.03233408 0.014752846 0.19180918 0.08398608 -0.055995684 -0.022463636 0.1693916 -0.13892214 -0.067182235 0.14568219 0.042501952 -0.10282965 0.05746045 0.1705689 -0.035839986 -0.05165824 -0.10724804 -0.08447905 0.0004609116 0.09308474 -0.03082869 0.1744009 0.034728963 -0.16923773 -0.075935096 -0.14224659 -0.17048967 -0.0859062 -0.14882317 0.0048099724 0.16080877 0.18573597 -0.046108603 -0.18851516 -0.1421488 -0.16872367 0.047037393 0.060086705 0.09889588 0.03538178 0.094536826 -0.14092766 -0.13910113 0.04161883 0.08306946 0.09330528 0.076274104 0.11548285 0.007464155 0.13853347 -0.0843848 -0.028101783 -0.04680712 0.14377812 0.08448731 -0.07823963 0.09028873 0.028446933 0.10762651 0.14196226 -0.18025398 -0.16972719 -0.0008026087 -0.14700961 0.12204328 0.074225165 0.18839064 0.044986427 0.18370965 0.1409088 0.103960864 0.12459071 0.113474116 -0.074430384 -0.060218584 0.15878676 -0.07007173 -0.049333334 0.09200307 0.07628892 0.075076416 -0.09691212 -0.06616713 -0.15391402 -0.12736528 0.066085294 0.10844419 0.1854762 -0.16245027 -0.08668193 -0.07301591 -0.07243226 -0.08385157 0.04831702 0.08160891 0.047713038 -0.13390036 0.14322229 -0.070969924 -0.023343576 0.0051010493 0.050806113 0.11507843 0.16369405 0.063353665 0.09031115 -0.10863116 -0.058447074 0.15634322 -0.058757957 -0.16621521 0.07850083 0.19169405 -0.074981675 0.16963921 0.16391964 0.092399724 0.1720127 -0.0027257479 0.055154264 0.17719026 0.17169866 0.027538575 0.060230196 0.17694505 -0.098380245 0.17006794 0.12052638 0.036157988 0.16117519 -0.09263008 0.026795063 0.07048651 0.034373388 0.15300992 0.09494924 -0.10250556 0.13484855 0.14470139 -0.081655554 -0.18499245 0.025019731 0.17022452 -0.06676135 -0.09894618 0.09274667 -0.08526533 0.06125397 0.007268995 0.035510473 0.15629424 -0.18748257 0.13604341 0.045781158 0.14872193 -0.02096496 -0.16476087 0.009254552 -0.04393666 -0.022913093 -0.11894993 0.03511682 0.03611679 0.16713184 -0.042816028 0.17496784 0.1741311 0.015154779 -0.055929005 0.08799356 0.1552063 -0.19192654 -0.07558163 0.04291606 -0.08285964 -0.1287094 -0.038384728 -0.13043012 0.029547175 0.12332913 0.056904826 -0.07225644 0.012629095 -0.10247613 0.18125215 0.06273277 -0.07480054 0.15101016 0.02006638 0.16900441 0.085425526 0.16317259 0.08218203 -0.102436505 -0.118234396 0.013997622 -0.16664773 -0.17093603 0.100675434 -0.04438929 -0.008507941 0.15858367 0.151983 0.14694032 0.09821377 0.040673465 -0.095569044 -0.083500564 0.014267563 -0.17365764 0.1876047 -0.06016224 -0.048476208 -0.03455551 0.045855336 -0.0917465 0.10145402 -0.095705345 0.13225028 0.026260892 0.09330227 -0.01616804 0.17888722 -0.11198001 0.08707975 0.008964663 0.010816055 -0.118727274 -0.11859223 0.14896518 0.14523531 0.025273371 0.07596398 -0.00028966987 -0.12287623 -0.07895948 -0.15564042 0.09046781 -0.050291777 -0.061237738 0.022793803 0.12031157 -0.05668028 0.041565824 -0.00655196 0.13597125 0.04902464 -0.012590004 0.1512599 0.115639396 -0.019119728 -0.07718224 0.07471964 -0.17024323 -0.1547877 0.03569291 -0.011345071 -0.15785527 0.0067637 -0.078962624 0.15515919 0.16832316 0.111881346 0.16365911 -0.11590241 -0.016678022 0.11810933 0.016400162 0.009054172 0.028591378 -0.080788456 -0.021950824 0.11654834 0.105711274 0.00043795447 0.07777719 -0.026104622 -0.14133534 -0.04015726 -0.025471382 0.17523323 0.1295107 -0.045201734 -0.14333728 0.14104591 -0.029356908 -0.09979367 -0.16152921 -0.031038783 0.032279 -0.15913253 -0.009103474 0.059984975 0.14915311 0.08299483 -0.17049436 0.19192722 0.08624 0.1621963 -0.122716404 0.005542996 0.10673352 0.06852057 -0.09154758 0.039723568 -0.09426905 -0.0033402583 0.02844682 -0.10265777 -0.12971777 -0.023450213 -0.100364685 -0.029524 -0.18783486 -0.19137493 0.15791316 0.12763065 -0.087018885 -0.0646762 -0.13617633 0.083148256 -0.07742865 0.06367542 -0.0901608 0.029718865 0.033029698 -0.06762144 -0.105797336 0.00221605 -0.1806318 0.13083035 0.18350585 -0.102291025 0.1180825 0.08253491 0.042139303 0.023569264 0.097479485 -0.12773213 -0.10862435 -0.17987317 -0.06187312 0.086362265 -0.010139658 0.09054388 0.025649121 -0.07104023 0.0053517725 -0.14901166 0.046875883 -0.043642167 0.14002182 -0.18813528 0.026715657 7.192216e-05 0.0715607 0.07446711 0.08469359 -0.15721194 0.13342135 0.11907651 -0.018401435 0.08287889 0.008175426 -0.052418638 0.038146883 0.04648545 0.16376768 0.1631932 -0.08342887 -0.032313924 -0.17258297 0.010101948 0.120290644 -0.105458215 0.16123489 -0.014417188 0.07072339 -0.0012893728 -0.106176406 0.13399063 0.108136445 0.072356194 -0.06607588 0.1166677 -0.13158394 -0.021737125 0.027634094 -0.04216077 -0.058537006 -0.07015587 0.0043928744 -0.18162903 -0.17374107 -0.105692014 0.0024584776 -0.19175676 -0.058567267 0.1559109 0.11746597 -0.09480921 -0.04092043 -0.0052533085 0.09518732 -0.09451356 0.04393185 0.16635688 -0.18873122 0.16469069 0.16438518 -0.0724016 0.10498852 0.036927663 -0.14011456 -0.17997591 -0.15086791 0.109279454 -0.18134722 0.15914184 0.11060911 0.11856771 -0.06832868 -0.157604 -0.08411036 0.054953806 -0.17386153 -0.103463784 0.0442456 0.115858346 0.1123493 -0.14097244 -0.013787377 0.14697166 0.13126509 0.14359406 0.16437459 -0.002435812 0.013113055 -0.102541946 -0.05195551 0.07566928 -0.0949805 0.15697673 -0.116785124 -0.13369657 0.11568846 0.04618304 0.17967856 -0.06810896 -0.071442105 -0.12320597 -0.1579424 0.0793433 0.19237374 -0.06459934 -0.10567948 -0.12329105 0.06394302 -0.0048572244 -0.14711513 -0.0032176964 -0.0012407138 -0.11497603 -0.15926448 -0.0013567642 -0.065913275 0.14116547 -0.00021596478 0.11761539 0.04711668 -0.02445952 0.15930168 0.030359894 0.102052025 -0.09996572 -0.11975763 0.0448225 -0.13096665 0.06837658 0.18688865 0.03209031 0.0015525923 0.072041124 -0.009517453 0.05529165 0.09451675 -0.1539933 0.18200074 0.103536345 -0.17827891 0.10889866 0.09428708 -0.037650313 0.1267268 -0.18038203 0.074550875 -0.011385745 -0.07685286 -0.11113936 -0.15342872 -0.109426536 -0.16311988 0.034818634 0.19135684 0.016004622 -0.16918857 -0.09265484 0.09555923 0.17395853 -0.050294753 0.06406734 0.105864935 -0.041384354 -0.17024435 -0.11768855 0.03859613 0.16676001 -0.15736215 0.16336398 -0.1560504 -0.09911989 0.19073749 0.034316614 0.11590593 -0.11470846 0.0031803073 -0.14230512 -0.09021958 0.026670853 0.0004904057 -0.1644575 0.06377319 -0.14444885 -0.17436922 -0.14121215 -0.082226545 0.17953305 -0.026594812 -0.023835916 -0.1573136 0.09058973 -0.038608775 -0.10364929 0.10662047 0.095455244 0.11754778 -0.023193425 0.075471 -0.04066073 -0.13730927 -0.11652379 0.08979222 -0.067227684 -0.13053681 -0.09770071 0.17230742 0.012938185 0.10296772 -0.048694912 -0.12204931 0.014087089 0.11732906 -0.06355288 -0.11876234 -0.007297368 0.09953366 0.06426314 -0.1868778 0.1354165 -0.09936266 0.16649152 -0.05671579 -0.14408457 0.14250825 -0.12297856 0.04384708 -0.03972055 -0.12095192 0.07801241 -0.03304665 0.07352404 -0.0028260392 0.17537889 0.07995705 0.06048272 -0.12938635 0.13452023 0.019395884 0.16300012 -0.109643884 0.069480546 -0.017705427 0.1459979 -0.16982858 0.042082686 0.13428305 -0.009067818 0.030663379 0.17050947 -0.16942847 0.14147222 -0.076193355 0.09805925 0.19106394 -0.040516816 0.17091961 -0.17459783 0.05310013 -0.038475946 0.080979176 -0.1219524 0.12475634 -0.17080829 -0.17914402 0.12849978 0.18771417 0.15114968 0.021706434 0.12749225 -0.18352894 -0.10093316 -0.010023458 0.08361346 0.06561771 -0.11621961 -0.13283083 0.07076674 -0.09949245 -0.028034128 -0.105192184 -0.15279987 0.11826217 -0.1799815 -0.0063513136 0.096201845 -0.013791812 -0.17614914 0.1376135 -0.16182408 -0.06715391 -0.059411768 -0.11586412 -0.148163 -0.077190764 -0.047903858 -0.0010981761 0.011626499 -0.1122988 0.050503347 0.11550027 -0.048614968 0.113754645 0.10579022 0.103106365 0.1629851 0.1691817 0.12575346 0.14903069 0.11054031 0.09819731 0.020772874 0.13919847 0.15347211 0.028615074 0.17483489 0.118740454 -0.18078345 -0.14602734 0.0173397 -0.044396777 -0.04634577 -0.08054692 -0.15318845 -0.07205865 0.17168769 -0.13505521 -0.057288863 0.14790544 0.070477 -0.09499545 0.18413822 -0.014336072 0.16126443 0.19016695 -0.12805898 -0.007837699 0.04792816 0.17053282 0.15118879 -0.11194346 0.16654101 -0.036671832 -0.061125804 0.050954558 0.10008864 -0.10480306 -0.08941706 0.12219443 0.029976808 0.049501404 0.023213614 -0.0014061807 0.016100077 0.026263757 -0.011639877 0.17381935 0.028859364 0.020892408 -0.023629498 -0.13339975 0.12432877 -0.061577678 -0.016574327 0.17642154 -0.060157776 0.1211074 -0.12764849 -0.057933528 -0.08350194 0.19035941 -0.018811667 0.07189212 0.09737487 0.11564812 -0.10495323 0.081900634 0.044983137 -0.105433114 -0.050936967 0.17837434 -0.09051092 -0.13508697 -0.17213914 0.14405614 0.10804187 -0.18229802 0.045376413 -0.017217012 0.13202327 0.08025653 0.008270498 -0.061699893 0.074283175 0.16875853 0.113784105 -0.08892849 -0.11907875 -0.154411 -0.15093637 -0.15456966 -0.05952569 0.14967315 -0.14592512 -0.13154775 0.17140236 -0.081990294 -0.09403748 0.08025157 -0.022209067 -0.17554387 0.05644061 -0.12829523 0.0687128 0.16269115 -0.014728913 0.018689739 0.0076106684 0.15632395 -0.16334288 -0.18518437 0.061925065 -0.058297522 0.1351373 0.08832798 0.025390215 -0.10322011 -0.09882631 0.161207 -0.14872724 -0.14952213 -0.06447006 0.11958148 0.13684836 -0.18630122 -0.14070511 -0.13863847 0.087460086 -0.16898626 0.12474624 0.1700968 -0.07511367 -0.064504586 0.05704654 -0.022983212 0.026786167 0.051469166 -0.17797348 0.11665376 -0.012616185 -0.05579515 -0.15415877 0.009393753 0.14354362 -0.15155762 0.096494816 0.04651667 0.07748332 0.12015026 0.14865482 0.14840364 -0.013986909 0.044798344 0.1772996 -0.024672078 0.10991507 0.18664153 0.17011136 0.19182456 -0.10078242 0.0362173 0.11011898 0.19037557 0.18941924 0.06284101 0.18510148 0.003411542 -0.010337571 0.1585163 -0.071622275 -0.14827162 -0.08293062 -0.14361224 0.010376466 0.09974388 0.04847198 0.10220622 -0.14522593 -0.12839422 0.18963964 0.0512928 -0.08158116 -0.059465338 -0.078932635 -0.14134474 0.15024114 0.16916068 -0.074915044 0.17366523 -0.12535144 0.14512461 0.12867908 -0.096059866 -0.16756834 -0.058343034 0.029312387 0.010822162 0.0018275907 -0.13833684 -0.18971868 -0.05928663 -0.057018884 -0.033110727 0.15367192 -0.10676903 0.057163052 0.029776707 0.15147921 -0.1513212 -0.081508234 -0.1045799 -0.092730306 -0.075582 0.17415139 0.14153902 -0.009304886 -0.023904929 -0.012476587 -0.13186842 0.1766408 -0.08789666 0.07304178 0.008323787 -0.18552369 -0.09537978 -0.00043241546 -0.06874941 -0.17006347 0.013148576 -0.1554234 0.029472949 -0.17538059 -0.03187457 0.08450002 0.16872129 -0.18406662 -0.18068534 -0.16111284 0.18010907 -0.14234923 -0.1779975 0.18658254 -0.017520584 -0.10056848 0.16170962 0.13850662 0.13864367 -0.01729442 -0.15984851 0.14465997 0.010083966 0.15684368 0.022204345 0.030636312 0.121510856 0.048956767 0.17351091 0.14795762 0.09036612 0.006323449 -0.0824645 -0.1074704 0.013830374 -0.15344918 -0.09089088 0.061290435 -0.09318484 0.023173248 -0.13426279 -0.09210779 -0.11742066 